Cufon.registerFont({"w":606,"face":{"font-family":"Bryant","font-weight":500,"font-stretch":"normal","units-per-em":"1000","panose-1":"0 0 0 0 0 0 0 0 0 0","ascent":"800","descent":"-200","x-height":"12","cap-height":"8","bbox":"-25.0281 -889 1162 218","underline-thickness":"20","underline-position":"-123","stemh":"60","stemv":"65","unicode-range":"U+0020-U+FB02"},"glyphs":{" ":{"w":280},"!":{"d":"180,-451v0,0,-7,120,-15,288v0,8,-6,15,-15,15v-9,0,-16,-6,-16,-15r-15,-288r0,-193v0,-17,14,-31,31,-31v17,0,30,14,30,31r0,193xm194,-40v0,25,-20,45,-45,45v-25,0,-44,-20,-44,-45v0,-25,19,-45,44,-45v25,0,45,20,45,45","w":299},"\"":{"d":"266,-463v0,14,-11,25,-25,25v-14,0,-24,-11,-24,-25r0,-188v0,-14,10,-24,24,-24v14,0,25,10,25,24r0,188xm144,-463v0,14,-10,25,-24,25v-14,0,-25,-11,-25,-25r0,-188v0,-14,11,-24,25,-24v14,0,24,10,24,24r0,188","w":361},"#":{"d":"493,-435v0,35,-60,17,-93,21r-17,135v32,4,88,-13,88,21v0,35,-60,17,-94,21r-28,226v-1,12,-13,21,-25,19v-12,-2,-22,-13,-20,-25r29,-220r-154,0r-29,226v-2,12,-13,21,-25,19v-12,-2,-21,-13,-19,-25r28,-220v-33,-4,-89,13,-89,-21v0,-35,61,-17,95,-21r17,-135v-34,-4,-92,14,-92,-21v0,-36,63,-16,97,-21r26,-200v2,-12,12,-21,24,-19v12,2,21,13,19,25r-25,194r155,0r25,-200v2,-12,13,-21,25,-19v12,2,21,13,19,25r-25,194v32,4,88,-13,88,21xm355,-414r-154,0r-17,135r155,0","w":528},"$":{"d":"494,-630v26,13,18,54,-10,52v-6,0,-12,-1,-17,-4v-49,-26,-91,-39,-149,-41r0,260v124,48,194,109,194,191v0,95,-75,174,-194,181r0,74v0,18,-27,16,-27,0r0,-73v-79,-1,-155,-32,-227,-87v-22,-17,-13,-54,14,-53v6,0,12,2,17,6v61,53,125,77,196,79r0,-269v-114,-50,-200,-105,-200,-200v0,-97,72,-161,200,-165v4,-25,-11,-68,13,-73v25,4,10,48,14,73v65,2,121,22,176,49xm291,-375r0,-248v-91,2,-140,40,-140,109v0,57,41,92,140,139xm451,-169v0,-57,-41,-85,-133,-132r0,255v77,-4,133,-52,133,-123","w":572},"%":{"d":"771,-142v0,86,-69,155,-155,155v-86,0,-156,-69,-156,-155v0,-86,70,-155,156,-155v86,0,155,69,155,155xm566,-665v10,-19,40,-8,38,11r-359,652v-13,22,-49,4,-36,-20xm355,-523v0,86,-69,155,-155,155v-86,0,-155,-69,-155,-155v0,-86,69,-155,155,-155v86,0,155,69,155,155xm728,-142v0,-65,-45,-116,-112,-116v-67,0,-112,51,-112,116v0,65,45,115,112,115v67,0,112,-50,112,-115xm312,-523v0,-65,-45,-116,-112,-116v-67,0,-111,51,-111,116v0,65,44,115,111,115v67,0,112,-50,112,-115","w":816},"&":{"d":"565,-34v42,0,72,-39,97,-9v2,3,3,6,3,9v-9,32,-58,47,-100,47v-56,0,-92,-31,-126,-82v-49,48,-111,82,-187,82v-107,0,-197,-82,-197,-190v0,-98,63,-154,165,-209v-35,-49,-71,-103,-71,-161v0,-78,56,-131,142,-131v81,0,144,53,144,130v0,64,-53,134,-140,179v109,163,137,205,149,221v37,-48,49,-81,68,-126v11,-26,54,-16,49,10v-11,60,-54,114,-86,159v31,48,52,71,90,71xm382,-547v0,-53,-45,-84,-91,-84v-50,0,-87,26,-87,85v0,51,35,96,66,139v64,-32,112,-84,112,-140xm409,-112v-14,-19,-118,-171,-160,-233v-81,45,-136,85,-136,166v0,85,69,141,141,141v61,0,114,-30,155,-74","w":685},"\u2019":{"d":"122,-444v-11,13,-34,1,-26,-16v34,-41,51,-80,51,-126v-28,1,-47,-19,-48,-45v0,-25,20,-44,45,-44v29,0,47,21,47,50v0,61,-22,125,-69,181","w":266},"(":{"d":"243,95v11,17,-2,41,-22,40v-9,0,-17,-5,-22,-12v-171,-248,-172,-603,0,-852v13,-19,49,-12,48,13v0,5,-1,11,-4,15v-153,240,-150,555,0,796","w":282},")":{"d":"39,-701v-12,-19,3,-40,23,-40v9,0,17,5,22,12v172,240,169,610,0,852v-20,29,-63,0,-45,-28v152,-244,154,-552,0,-796","w":283},"*":{"d":"304,-581v15,-5,25,6,28,19v0,9,-6,17,-15,20r-102,34v22,32,51,57,68,94v1,18,-25,29,-37,13r-65,-84r-66,84v-15,20,-50,-3,-33,-25r64,-82r-103,-34v-24,-9,-12,-48,14,-39r102,34r0,-107v0,-29,43,-25,42,0r0,107","w":362},"+":{"d":"511,-218v0,14,-10,25,-24,25r-174,0r0,173v0,15,-13,28,-28,28v-15,0,-27,-13,-27,-28r0,-173r-174,0v-14,0,-24,-11,-24,-25v0,-14,10,-24,24,-24r174,0r0,-174v0,-15,12,-27,27,-27v15,0,28,12,28,27r0,174r174,0v14,0,24,10,24,24","w":571},",":{"d":"95,137v29,-45,55,-84,52,-133v-25,5,-48,-19,-48,-44v0,-25,20,-44,45,-44v29,0,46,19,46,52v0,61,-20,123,-67,179v-9,11,-29,3,-28,-10","w":300},"-":{"d":"336,-268v0,15,-12,27,-27,27r-188,0v-15,0,-26,-12,-26,-27v0,-15,11,-26,26,-26r188,0v15,0,27,11,27,26","w":431},".":{"d":"199,-40v0,25,-20,45,-45,45v-25,0,-44,-20,-44,-45v0,-25,19,-45,44,-45v25,0,45,20,45,45","w":309},"\/":{"d":"300,-708v6,-25,49,-20,47,7r-255,790v-6,26,-50,16,-47,-8","w":392},"0":{"d":"586,-333v0,170,-81,346,-260,346v-179,0,-261,-176,-261,-346v0,-170,82,-345,261,-345v179,0,260,175,260,345xm523,-333v0,-161,-67,-290,-197,-290v-130,0,-199,129,-199,290v0,161,69,291,199,291v130,0,197,-130,197,-291","w":651},"1":{"d":"292,-23v0,17,-14,31,-31,31v-17,0,-31,-14,-31,-31r0,-585v-13,3,-161,54,-177,54v-29,0,-39,-45,-9,-54r217,-67v18,0,31,13,31,31r0,621","w":407},"2":{"d":"572,-501v0,245,-423,188,-426,446r404,0v15,0,27,13,27,28v0,15,-12,27,-27,27r-448,0v-15,0,-27,-13,-27,-28v0,-172,107,-236,215,-286v142,-65,220,-105,220,-187v0,-77,-74,-122,-172,-122v-80,0,-140,24,-199,67v-17,13,-45,-2,-44,-23v0,-10,6,-18,14,-25v129,-116,463,-103,463,103","w":662},"3":{"d":"308,13v-97,-1,-225,-47,-258,-149v-1,-28,40,-38,52,-13v32,69,122,108,206,108v89,0,192,-45,192,-148v0,-123,-136,-151,-253,-145v-15,0,-27,-13,-27,-28v0,-32,39,-28,72,-28v77,0,165,-26,165,-118v0,-80,-78,-117,-148,-117v-59,0,-93,18,-142,47v-28,17,-56,-21,-31,-42v118,-100,382,-73,382,108v0,66,-47,118,-105,144v82,27,149,90,149,181v0,136,-135,200,-254,200","w":632},"4":{"d":"63,-184v-23,0,-36,-30,-20,-48r390,-432v17,-21,55,-9,55,20r0,405r139,0v15,0,27,13,27,28v0,15,-12,27,-27,27r-139,0r0,161v0,17,-14,31,-31,31v-17,0,-31,-14,-31,-31r0,-161r-363,0xm426,-239r0,-333r-301,333r301,0","w":689},"5":{"d":"65,-105v-13,-16,2,-41,22,-41v8,0,16,4,23,12v55,64,114,93,206,93v109,0,200,-73,200,-172v0,-95,-78,-157,-176,-157v-62,0,-122,13,-176,51v-20,15,-48,-2,-46,-25v0,-4,47,-295,48,-297v2,-14,13,-25,29,-25r323,0v15,0,27,13,27,28v0,15,-12,27,-27,27r-298,0r-37,226v155,-93,395,-17,395,170v0,126,-117,228,-262,228v-97,0,-192,-40,-251,-118","w":648},"6":{"d":"518,-610v-31,-6,-71,-13,-113,-13v-168,0,-258,138,-272,298v40,-66,116,-95,189,-95v141,0,237,91,237,214v0,116,-98,219,-243,219v-152,0,-251,-104,-251,-261v0,-280,173,-492,457,-414v29,7,24,50,-4,52xm497,-202v0,-94,-70,-163,-179,-163v-96,0,-189,60,-189,155v0,102,83,169,187,169v106,0,181,-70,181,-161","w":619},"7":{"d":"219,-23v3,-227,102,-448,220,-588r-397,0v-15,0,-27,-13,-27,-28v0,-15,12,-27,27,-27r447,0v22,-1,36,24,23,42v-108,151,-233,369,-231,601v0,17,-14,31,-31,31v-17,0,-31,-14,-31,-31","w":541},"8":{"d":"580,-187v0,115,-116,200,-252,200v-136,0,-253,-85,-253,-200v0,-86,64,-152,149,-180v-60,-28,-104,-81,-104,-145v0,-97,94,-166,208,-166v114,0,208,69,208,166v0,64,-45,117,-105,145v85,28,149,94,149,180xm475,-508v0,-67,-62,-117,-147,-117v-85,0,-148,47,-148,117v0,72,67,122,148,122v81,0,147,-52,147,-122xm518,-189v0,-90,-92,-148,-190,-148v-98,0,-191,58,-191,148v0,90,92,148,191,148v99,0,190,-58,190,-148","w":655},"9":{"d":"101,-55v31,6,71,13,113,13v168,0,257,-138,271,-298v-40,66,-116,95,-189,95v-141,0,-236,-91,-236,-214v0,-116,97,-219,242,-219v152,0,252,104,252,261v0,280,-173,492,-457,414v-29,-7,-24,-51,4,-52xm489,-455v0,-102,-82,-168,-186,-168v-106,0,-181,69,-181,160v0,94,70,163,179,163v96,0,188,-60,188,-155","w":619},":":{"d":"200,-388v0,25,-20,44,-45,44v-25,0,-45,-19,-45,-44v0,-25,20,-45,45,-45v25,0,45,20,45,45xm200,-40v0,25,-20,45,-45,45v-25,0,-45,-20,-45,-45v0,-25,20,-45,45,-45v25,0,45,20,45,45","w":310},";":{"d":"189,-388v0,25,-20,45,-45,45v-25,0,-44,-20,-44,-45v0,-25,19,-45,44,-45v25,0,45,20,45,45xm95,137v29,-44,55,-84,52,-133v-25,5,-47,-19,-47,-44v0,-25,19,-44,44,-44v29,0,47,19,47,52v0,61,-21,123,-68,179v-9,11,-30,3,-28,-10","w":301},"<":{"d":"429,-470v17,-11,41,2,40,23v0,9,-5,17,-13,22r-304,193r304,195v23,11,12,49,-13,48v-5,0,-10,-1,-14,-4r-341,-216v-17,-8,-17,-35,0,-45","w":604},"=":{"d":"410,-306v0,13,-12,24,-25,24r-266,0v-13,0,-24,-11,-24,-24v0,-13,11,-24,24,-24r266,0v13,0,25,11,25,24xm410,-176v0,13,-12,23,-25,23r-266,0v-13,0,-24,-10,-24,-23v0,-13,11,-25,24,-25r266,0v13,0,25,12,25,25","w":505},">":{"d":"148,-426v-23,-11,-12,-50,13,-48v5,0,10,1,14,4r342,216v18,9,15,35,-1,45r-341,216v-17,11,-40,-2,-40,-22v0,-9,5,-17,13,-22r304,-195","w":605},"?":{"d":"122,-574v-17,11,-41,0,-42,-19v-1,-8,3,-17,11,-23v42,-34,119,-62,194,-62v110,0,205,58,205,161v0,108,-105,174,-159,244v-23,29,-29,55,-29,97v0,16,-11,28,-27,28v-16,0,-29,-12,-29,-28v0,-61,11,-101,41,-135v55,-63,143,-125,143,-206v0,-67,-67,-107,-142,-107v-70,0,-114,15,-166,50xm322,-40v0,25,-20,45,-45,45v-25,0,-45,-20,-45,-45v0,-25,20,-45,45,-45v25,0,45,20,45,45","w":575},"@":{"d":"715,-86v20,-7,29,26,10,35v-73,36,-182,64,-293,64v-226,0,-377,-152,-377,-347v0,-190,129,-344,332,-344v142,0,223,83,223,201r0,283v0,13,-11,23,-24,23v-28,0,-23,-35,-23,-63v-24,44,-76,73,-128,73v-94,0,-166,-78,-166,-171v0,-93,71,-169,166,-169v54,0,106,29,129,73v12,-134,-48,-209,-178,-209v-180,0,-285,139,-285,303v0,171,124,308,331,308v119,1,197,-29,283,-60xm562,-332v0,-68,-51,-128,-123,-128v-72,0,-123,60,-123,128v0,68,50,129,123,129v73,0,123,-61,123,-129","w":761},"A":{"d":"89,-11v-10,30,-61,20,-59,-12v0,-4,0,-9,2,-13r282,-620v3,-7,14,-19,29,-19v15,0,25,13,28,19r282,620v16,36,-40,62,-56,26r-84,-185r-341,0xm487,-252r-144,-320r-145,320r289,0","w":685},"B":{"d":"596,-189v0,101,-74,189,-212,189r-246,0v-18,0,-33,-15,-33,-33r0,-601v0,-18,15,-32,33,-32r222,0v115,0,193,69,193,165v0,57,-34,118,-91,143v77,18,134,93,134,169xm487,-493v0,-67,-46,-114,-118,-114r-198,0r0,227r198,0v75,0,118,-49,118,-113xm531,-190v0,-69,-48,-131,-126,-131r-234,0r0,262r234,0v78,0,126,-52,126,-131","w":631},"C":{"d":"601,-161v26,-31,66,9,44,38v-66,86,-155,136,-262,136v-193,0,-333,-163,-333,-346v0,-183,140,-345,333,-345v91,0,169,34,227,95v27,28,-12,66,-39,42v-52,-45,-107,-78,-188,-78v-162,0,-267,137,-267,286v0,149,105,287,267,287v104,0,163,-50,218,-115","w":712},"D":{"d":"642,-333v0,179,-123,333,-323,333r-181,0v-18,0,-33,-15,-33,-33r0,-601v0,-18,15,-32,33,-32r181,0v200,0,323,154,323,333xm576,-333v0,-148,-93,-274,-263,-274r-142,0r0,548r142,0v170,0,263,-126,263,-274","w":687},"E":{"d":"567,-30v0,17,-13,30,-30,30r-399,0v-18,0,-33,-15,-33,-33r0,-601v0,-18,15,-32,33,-32r384,0v17,0,31,13,31,30v0,17,-14,30,-31,30r-352,0r0,229r199,0v17,0,30,13,30,30v0,17,-13,30,-30,30r-199,0r0,257r367,0v17,0,30,13,30,30","w":607},"F":{"d":"565,-636v0,17,-13,30,-30,30r-364,0r0,229r211,0v17,0,29,13,29,30v0,17,-12,30,-29,30r-211,0r0,293v0,18,-15,32,-33,32v-18,0,-33,-14,-33,-32r0,-610v0,-18,15,-32,33,-32r397,0v17,0,30,13,30,30","w":580},"G":{"d":"611,-585v25,26,-11,67,-40,42v-47,-39,-104,-76,-188,-76v-162,0,-268,137,-268,286v0,150,106,287,268,287v90,0,168,-38,214,-102r0,-148r-184,0v-16,0,-29,-14,-29,-30v0,-16,13,-29,29,-29r217,0v18,0,33,16,33,34r0,178v0,9,-3,15,-8,22v-66,88,-165,134,-272,134v-193,0,-333,-163,-333,-346v0,-183,140,-345,333,-345v91,0,167,32,228,93","w":728},"H":{"d":"620,-25v0,18,-14,33,-32,33v-18,0,-33,-15,-33,-33r0,-285r-385,0r0,285v0,18,-14,33,-32,33v-18,0,-33,-15,-33,-33r0,-617v0,-18,15,-33,33,-33v18,0,32,15,32,33r0,272r385,0r0,-272v0,-18,15,-33,33,-33v18,0,32,15,32,33r0,617","w":725},"I":{"d":"170,-25v0,18,-14,33,-32,33v-18,0,-33,-15,-33,-33r0,-617v0,-18,15,-33,33,-33v18,0,32,15,32,33r0,617","w":275},"J":{"d":"277,13v-121,-1,-215,-77,-232,-196v-5,-41,57,-43,62,-8v14,87,82,145,170,145v104,0,168,-70,168,-202r0,-394v0,-18,15,-33,33,-33v18,0,32,15,32,33r0,393v0,146,-75,262,-233,262","w":600},"K":{"d":"532,-666v18,-20,52,-3,52,22v0,8,-4,16,-10,22r-188,181r237,403v12,21,-3,46,-26,46v-11,0,-21,-6,-26,-15r-230,-390r-171,164r0,208v0,18,-14,33,-32,33v-18,0,-33,-15,-33,-33r0,-617v0,-18,15,-33,33,-33v18,0,32,15,32,33r0,324","w":687},"L":{"d":"553,-31v0,17,-13,31,-30,31r-385,0v-18,0,-33,-15,-33,-33r0,-609v0,-18,15,-33,33,-33v18,0,33,15,33,33r0,582r352,0v17,0,30,12,30,29","w":585},"M":{"d":"740,-23v0,17,-14,31,-31,31v-17,0,-31,-14,-31,-31r0,-487v-56,114,-227,501,-227,501v-9,22,-46,23,-56,0r-227,-500r0,485v0,17,-15,32,-32,32v-17,0,-31,-15,-31,-32r0,-620v-2,-34,47,-40,60,-11r258,566r257,-567v11,-30,60,-21,60,13r0,620","w":845},"N":{"d":"617,-23v2,28,-40,42,-56,19r-393,-552r0,533v0,17,-15,31,-32,31v-17,0,-31,-14,-31,-31r0,-620v-3,-28,43,-44,57,-19v0,0,320,458,392,551r0,-532v0,-17,14,-32,31,-32v17,0,32,15,32,32r0,620","w":722},"O":{"d":"716,-333v0,183,-139,346,-332,346v-193,0,-334,-163,-334,-346v0,-183,141,-345,334,-345v193,0,332,162,332,345xm651,-333v0,-150,-106,-286,-267,-286v-161,0,-269,136,-269,286v0,150,108,287,269,287v161,0,267,-137,267,-287","w":766},"P":{"d":"611,-477v0,101,-70,189,-197,189r-244,0r0,264v0,18,-15,32,-33,32v-18,0,-32,-14,-32,-32r0,-610v0,-18,14,-32,32,-32r276,0v127,0,198,88,198,189xm545,-477v0,-69,-47,-130,-125,-130r-250,0r0,259r250,0v78,0,125,-60,125,-129","w":641},"Q":{"d":"585,82v9,21,-3,44,-27,44v-11,0,-21,-6,-26,-16r-58,-109v-235,61,-424,-124,-424,-334v0,-183,141,-345,334,-345v193,0,333,162,333,345v0,133,-74,255,-187,312xm400,-142v-12,-19,4,-43,25,-44v11,0,22,6,28,17r50,95v93,-48,148,-150,148,-259v0,-150,-106,-286,-267,-286v-161,0,-268,136,-268,286v0,168,136,321,330,280","w":767},"R":{"d":"612,-37v9,21,-4,44,-27,45v-12,0,-23,-7,-29,-18r-140,-288r-245,0r0,274v0,18,-16,32,-34,32v-18,0,-32,-14,-32,-32r0,-610v0,-18,14,-32,32,-32r286,0v114,0,198,70,198,185v0,87,-54,158,-139,174xm555,-480v0,-74,-52,-127,-125,-127r-259,0r0,253r259,0v73,0,125,-52,125,-126","w":696},"S":{"d":"552,-607v32,26,-3,69,-33,49v-60,-39,-118,-61,-196,-61v-92,0,-174,33,-174,110v0,77,91,106,216,150v118,41,205,85,205,187v0,125,-114,185,-249,185v-79,0,-205,-34,-267,-101v-25,-28,11,-68,40,-43v64,57,144,85,228,85v88,0,182,-32,182,-123v0,-74,-87,-103,-229,-155v-91,-33,-191,-73,-191,-185v0,-207,344,-199,468,-98","w":630},"T":{"d":"567,-636v0,17,-14,30,-31,30r-210,0r0,581v0,18,-15,33,-33,33v-18,0,-33,-15,-33,-33r0,-581r-210,0v-17,0,-30,-13,-30,-30v0,-17,13,-30,30,-30r486,0v17,0,31,13,31,30","w":587},"U":{"d":"609,-264v0,169,-97,277,-259,277v-162,0,-260,-108,-260,-277r0,-378v0,-18,15,-33,33,-33v18,0,32,15,32,33r0,390v0,123,69,206,195,206v126,0,193,-83,193,-206r0,-390v0,-18,16,-33,34,-33v18,0,32,15,32,33r0,378","w":699},"V":{"d":"603,-675v23,0,36,23,27,43r-274,622v-9,23,-47,24,-57,0r-275,-622v-16,-37,41,-60,56,-25r247,566r248,-566v5,-11,16,-18,28,-18","w":655},"W":{"d":"781,-654v6,-30,62,-25,59,8v-3,32,-193,601,-201,633v-7,28,-50,27,-58,-1r-148,-524r-148,524v-7,29,-50,28,-59,0r-201,-631v-1,-16,11,-30,31,-30v15,0,26,11,29,21r170,529r149,-529v4,-28,50,-26,57,0r150,530","w":865},"X":{"d":"528,-663v16,-24,56,-8,54,19v0,6,-2,13,-6,18r-218,291r221,294v14,20,2,50,-24,49v-10,0,-19,-4,-25,-12r-210,-281r-210,281v-16,23,-55,8,-55,-18v0,-7,3,-14,7,-19r220,-294r-218,-292v-16,-18,-1,-48,23,-48v9,0,19,4,25,12r208,278","w":640},"Y":{"d":"503,-663v16,-23,55,-9,54,18v0,6,-2,13,-6,18r-229,310r0,292v0,18,-16,33,-34,33v-18,0,-32,-15,-32,-33r0,-292r-230,-310v-15,-19,0,-49,24,-48v9,0,18,4,24,12r214,292","w":577},"Z":{"d":"92,0v-26,2,-41,-29,-26,-49r410,-557r-369,0v-17,0,-31,-14,-31,-30v0,-17,14,-30,31,-30r431,0v25,-1,39,30,24,49r-411,557r394,0v16,0,30,14,30,30v0,16,-13,30,-30,30r-453,0","w":635},"[":{"d":"264,108v0,13,-10,24,-23,24v-49,0,-136,21,-136,-28r0,-779v6,-49,88,-28,136,-28v13,0,23,10,23,23v-3,40,-66,19,-104,24r0,741v37,5,104,-16,104,23","w":329},"\\":{"d":"46,-693v-4,-16,5,-32,22,-32v10,0,21,7,24,17r255,789v2,24,-39,34,-47,8","w":392},"]":{"d":"224,104v-5,48,-87,28,-135,28v-13,0,-24,-11,-24,-24v0,-39,67,-18,104,-23r0,-741v-38,-4,-104,16,-104,-24v0,-13,11,-23,24,-23v48,0,135,-21,135,28r0,779","w":329},"^":{"d":"88,-368v-16,26,-55,2,-40,-24r162,-274v7,-14,32,-14,40,0r162,274v10,15,-1,35,-19,35v-8,0,-16,-4,-20,-11r-143,-241","w":461},"_":{"d":"428,48r-429,0r0,-35r429,0r0,35","w":427},"\u2018":{"d":"178,-669v11,-13,34,-1,26,16v-34,41,-51,81,-51,127v26,-5,48,18,48,44v0,25,-19,44,-44,44v-29,0,-47,-21,-47,-50v0,-61,21,-125,68,-181","w":300},"a":{"d":"92,-361v-24,1,-35,-35,-11,-47v141,-70,361,-54,361,134r0,252v0,17,-12,30,-29,30v-28,0,-34,-26,-31,-57v-25,33,-84,61,-149,61v-101,0,-178,-61,-178,-145v0,-92,77,-144,178,-144v65,0,118,18,149,51v8,-115,-22,-169,-140,-169v-57,0,-103,18,-150,34xm382,-134v0,-71,-64,-96,-135,-96v-70,0,-133,28,-133,97v0,69,69,98,130,98v75,0,138,-41,138,-99","w":512},"b":{"d":"559,-217v0,131,-99,229,-225,229v-76,0,-142,-36,-174,-95v-1,38,10,91,-30,91v-17,0,-30,-13,-30,-30r0,-623v0,-17,13,-30,30,-30v17,0,30,13,30,30r0,294v31,-54,97,-95,174,-95v126,0,225,98,225,229xm498,-217v0,-104,-71,-176,-168,-176v-97,0,-170,77,-170,176v0,99,73,176,170,176v97,0,168,-72,168,-176","w":599},"c":{"d":"411,-109v15,-18,44,-4,43,17v0,6,-2,12,-6,17v-40,50,-106,87,-179,87v-127,0,-229,-98,-229,-229v0,-131,102,-229,229,-229v61,0,112,23,158,63v24,22,-7,58,-32,39v-40,-31,-79,-50,-126,-50v-97,0,-169,79,-169,177v0,98,72,177,169,177v63,0,108,-32,142,-69","w":488},"d":{"d":"499,-22v0,17,-13,30,-30,30v-40,0,-29,-53,-30,-91v-32,59,-98,95,-174,95v-126,0,-225,-98,-225,-229v0,-131,99,-229,225,-229v77,0,143,41,174,95r0,-294v0,-17,13,-30,30,-30v17,0,30,13,30,30r0,623xm439,-217v0,-99,-73,-176,-170,-176v-97,0,-168,72,-168,176v0,104,71,176,168,176v97,0,170,-77,170,-176","w":599},"e":{"d":"418,-109v16,-19,44,-6,44,15v0,5,-2,11,-6,16v-34,46,-105,90,-188,90v-127,0,-228,-101,-228,-229v0,-128,96,-229,223,-229v125,0,219,102,219,224v0,13,-9,21,-23,21r-357,0v3,90,75,162,168,162v66,0,113,-28,148,-70xm422,-246v-9,-84,-71,-149,-159,-149v-88,0,-152,64,-161,149r320,0","w":517},"f":{"d":"344,-649v0,25,-26,25,-53,25v-74,0,-95,29,-95,108r0,83v42,6,117,-18,117,25v0,43,-76,19,-117,25r0,361v0,17,-13,30,-30,30v-17,0,-30,-13,-30,-30r0,-361v-35,-3,-90,13,-91,-25v0,-38,56,-22,91,-25v-10,-154,16,-241,183,-241v14,0,25,11,25,25","w":364},"g":{"d":"101,116v51,15,102,30,159,28v145,-4,190,-91,179,-230v-30,57,-97,95,-174,95v-123,0,-225,-98,-225,-228v0,-127,99,-227,225,-227v76,0,140,39,173,97v1,-39,-10,-93,30,-93v17,0,30,14,30,31r0,375v0,129,-77,231,-236,231v-61,0,-117,-11,-168,-30v-27,-10,-17,-49,7,-49xm439,-219v0,-96,-73,-174,-170,-174v-97,0,-169,78,-169,174v0,96,72,175,169,175v97,0,170,-79,170,-175","w":588},"h":{"d":"510,-22v0,17,-12,30,-29,30v-17,0,-31,-13,-31,-30r0,-224v0,-83,-42,-147,-138,-147v-86,0,-152,68,-152,149r0,222v0,17,-13,30,-30,30v-17,0,-30,-13,-30,-30r0,-623v0,-17,13,-30,30,-30v16,0,30,13,30,30r0,283v32,-51,97,-84,164,-84v119,0,186,87,186,201r0,223","w":605},"i":{"d":"172,-594v0,20,-15,36,-35,36v-20,0,-37,-16,-37,-36v0,-20,17,-36,37,-36v20,0,35,16,35,36xm166,-22v0,17,-12,30,-29,30v-17,0,-31,-13,-31,-30r0,-390v0,-17,14,-30,31,-30v17,0,29,13,29,30r0,390","w":272},"j":{"d":"189,-594v0,20,-16,36,-36,36v-20,0,-37,-16,-37,-36v0,-20,17,-36,37,-36v20,0,36,16,36,36xm182,24v2,120,-53,171,-182,171v-14,0,-25,-10,-25,-24v0,-25,25,-26,53,-26v75,0,94,-40,94,-117r0,-440v0,-17,14,-30,31,-30v17,0,29,13,29,30r0,436","w":279},"k":{"d":"405,-436v18,-14,46,-1,45,22v0,8,-4,16,-11,21r-172,138r188,218v14,18,2,46,-23,45v-7,0,-14,-3,-19,-9r-190,-221r-64,51r0,149v0,16,-13,30,-29,30v-16,0,-30,-14,-30,-30r0,-623v0,-16,13,-30,30,-30v17,0,29,14,29,30r0,404","w":521},"l":{"d":"160,-21v0,17,-12,29,-29,29v-17,0,-31,-12,-31,-29r0,-624v0,-17,14,-30,31,-30v17,0,29,13,29,30r0,624","w":260},"m":{"d":"811,-22v0,17,-13,30,-30,30v-17,0,-30,-13,-30,-30v0,-160,49,-371,-127,-371v-81,0,-138,58,-138,137r0,234v0,17,-13,30,-30,30v-17,0,-30,-13,-30,-30r0,-224v0,-83,-39,-147,-127,-147v-86,0,-139,68,-139,149r0,222v0,17,-13,30,-30,30v-17,0,-30,-13,-30,-30r0,-390v0,-17,13,-30,30,-30v34,-1,31,41,30,76v33,-51,84,-80,151,-80v79,0,131,41,156,100v28,-64,97,-100,168,-100v118,0,176,85,176,199r0,225","w":906},"n":{"d":"511,-22v0,17,-14,30,-31,30v-17,0,-29,-13,-29,-30r0,-224v0,-83,-45,-147,-139,-147v-86,0,-152,68,-152,149r0,222v0,17,-13,30,-30,30v-17,0,-30,-13,-30,-30r0,-390v0,-17,12,-30,29,-30v35,-1,31,42,30,78v33,-50,98,-82,165,-82v115,0,187,87,187,201r0,223"},"o":{"d":"498,-217v0,127,-102,229,-229,229v-127,0,-229,-102,-229,-229v0,-127,102,-229,229,-229v127,0,229,102,229,229xm439,-217v0,-96,-73,-176,-170,-176v-97,0,-169,80,-169,176v0,96,72,176,169,176v97,0,170,-80,170,-176","w":538},"p":{"d":"558,-217v0,131,-98,229,-224,229v-76,0,-139,-36,-174,-95r0,248v0,17,-13,30,-30,30v-17,0,-30,-13,-30,-30r0,-577v0,-17,13,-30,30,-30v40,0,29,53,30,91v37,-61,99,-95,174,-95v126,0,224,98,224,229xm498,-217v0,-104,-72,-176,-169,-176v-97,0,-169,77,-169,176v0,99,72,176,169,176v97,0,169,-72,169,-176","w":598},"q":{"d":"498,165v0,17,-13,30,-30,30v-17,0,-30,-13,-30,-30r0,-248v-35,59,-98,95,-174,95v-126,0,-224,-98,-224,-229v0,-131,98,-229,224,-229v75,0,137,34,174,95v1,-38,-10,-91,30,-91v17,0,30,13,30,30r0,577xm438,-217v0,-99,-72,-176,-169,-176v-97,0,-169,72,-169,176v0,104,72,176,169,176v97,0,169,-77,169,-176","w":598},"r":{"d":"354,-419v0,15,-11,26,-26,26v-88,0,-169,61,-169,153r0,218v0,16,-14,30,-30,30v-16,0,-29,-13,-29,-30r0,-390v0,-17,12,-30,29,-30v36,-1,31,45,30,81v35,-55,95,-85,169,-85v15,0,26,12,26,27","w":374},"s":{"d":"397,-402v28,17,2,58,-25,42v-39,-23,-82,-36,-128,-36v-67,0,-114,21,-114,65v0,45,34,57,132,89v97,32,156,65,156,130v0,72,-71,124,-180,124v-57,0,-120,-18,-173,-57v-25,-17,2,-57,27,-39v44,31,90,47,143,47v62,0,125,-21,125,-74v0,-41,-42,-61,-147,-96v-79,-27,-140,-56,-140,-125v0,-71,74,-114,167,-114v69,0,113,16,157,44","w":478},"t":{"d":"292,-408v0,43,-74,19,-114,25r0,362v0,17,-12,29,-29,29v-17,0,-31,-12,-31,-29r0,-362v-38,-5,-103,16,-103,-25v0,-41,65,-20,103,-25r0,-147v0,-17,14,-30,31,-30v17,0,29,13,29,30r0,147v41,5,114,-18,114,25","w":322},"u":{"d":"506,-22v0,17,-13,30,-30,30v-35,1,-31,-42,-30,-78v-33,50,-97,82,-164,82v-115,0,-187,-87,-187,-201r0,-223v0,-17,13,-30,30,-30v17,0,30,13,30,30r0,224v0,83,45,147,139,147v86,0,152,-68,152,-149r0,-222v0,-17,12,-30,29,-30v17,0,31,13,31,30r0,390"},"v":{"d":"378,-426v9,-26,54,-17,51,12v0,4,-1,8,-2,11r-172,395v-7,21,-40,20,-49,0r-173,-395v-9,-19,4,-39,25,-39v10,0,20,6,24,16r148,341","w":459},"w":{"d":"602,-425v9,-28,54,-17,52,11r-150,404v-7,22,-44,24,-51,0r-103,-319r-103,319v-7,24,-43,22,-51,0r-151,-404v-2,-28,43,-38,53,-11r122,327r105,-326v6,-22,42,-24,50,0r105,326","w":699},"x":{"d":"362,-431v13,-21,49,-8,48,16v0,6,-1,11,-5,16r-137,180r139,184v13,17,1,45,-21,43v-8,0,-17,-4,-22,-11r-130,-172r-130,172v-14,22,-51,8,-49,-16v0,-6,2,-11,6,-16r140,-184r-138,-180v-14,-18,2,-42,22,-43v8,0,16,4,21,11r128,168","w":467},"y":{"d":"376,-426v9,-26,54,-17,52,11v0,4,0,7,-2,11r-172,394v-40,88,-108,174,-214,205v-28,0,-33,-42,-6,-51v81,-26,135,-95,165,-164r-170,-393v-5,-26,40,-41,52,-13r148,341","w":458},"z":{"d":"392,-433v22,-1,35,27,21,44r-277,339r256,0v14,0,25,11,25,25v0,14,-11,25,-25,25r-308,0v-25,3,-37,-25,-23,-44r277,-339r-256,0v-14,0,-26,-11,-26,-25v0,-14,12,-25,26,-25r310,0","w":464},"{":{"d":"41,-263v-13,0,-27,-5,-26,-19v0,-15,12,-20,29,-20v52,0,90,-26,90,-90r0,-225v0,-50,16,-86,77,-86v27,0,66,-9,67,19v0,22,-26,21,-49,20v-31,0,-41,18,-41,48r0,216v0,69,-38,118,-114,118v76,0,114,48,114,117r0,216v-3,42,26,48,70,48v11,0,20,9,20,20v-1,28,-41,19,-67,19v-61,0,-77,-36,-77,-86r0,-225v0,-65,-40,-90,-93,-90","w":313},"|":{"d":"148,136v0,12,-9,22,-21,22v-12,0,-22,-10,-22,-22r0,-889v0,-12,10,-22,22,-22v12,0,21,10,21,22r0,889","w":253},"}":{"d":"272,-302v29,0,35,39,7,39v-60,0,-100,22,-100,90r0,225v0,50,-16,86,-77,86v-26,0,-67,9,-67,-19v-1,-23,26,-21,49,-20v31,0,40,-18,40,-48r0,-216v0,-69,38,-117,114,-117v-76,0,-114,-49,-114,-118r0,-216v4,-43,-26,-48,-70,-48v-11,0,-19,-9,-19,-20v0,-28,41,-19,67,-19v61,0,77,36,77,86r0,225v0,65,40,90,93,90","w":313},"~":{"d":"45,-278v17,-50,71,-81,122,-81v71,0,127,68,180,68v47,0,72,-32,89,-55v10,-14,37,-6,34,10v-10,50,-69,87,-123,87v-67,0,-116,-67,-179,-67v-56,0,-68,41,-104,56v-10,1,-19,-9,-19,-18","w":515},"\u00a1":{"d":"194,-630v0,25,-19,45,-44,45v-25,0,-45,-20,-45,-45v0,-25,20,-45,45,-45v25,0,44,20,44,45xm180,-23v0,17,-14,31,-31,31v-17,0,-30,-14,-30,-31r0,-193v0,0,7,-120,15,-288v0,-8,6,-15,15,-15v9,0,16,6,16,15r15,288r0,193","w":299},"\u00a2":{"d":"411,-109v15,-18,44,-3,43,17v0,6,-2,12,-6,17v-38,48,-101,84,-170,87v-4,26,11,70,-14,74v-26,-4,-10,-50,-14,-75v-118,-9,-210,-104,-210,-228v0,-124,92,-219,210,-228v4,-26,-12,-71,14,-75v26,4,10,49,14,74v57,2,105,25,149,63v18,16,4,45,-17,44v-6,0,-10,-1,-15,-5v-37,-29,-74,-48,-117,-50r0,354v58,-3,101,-33,133,-69xm250,-41r0,-352v-87,10,-150,85,-150,176v0,91,63,166,150,176","w":488},"\u00a3":{"d":"614,-599v-52,-7,-94,-24,-163,-24v-113,0,-176,66,-176,178r0,93r177,0v16,0,29,12,29,28v0,16,-13,29,-29,29r-177,0r0,238r272,0v16,0,29,12,29,28v0,16,-13,29,-29,29r-439,0v-16,0,-28,-13,-28,-29v0,-49,86,-21,132,-28r0,-238v-40,-3,-101,14,-101,-29v1,-42,62,-25,101,-28r0,-92v0,-142,92,-234,234,-234v74,0,128,11,176,26v29,9,20,57,-8,53","w":696},"\u2044":{"d":"400,-667v8,-15,34,-7,33,10v0,3,-1,7,-3,10r-422,647v-8,15,-34,6,-33,-10v0,-3,1,-7,3,-10","w":408},"\u00a5":{"d":"503,-663v16,-23,56,-9,55,18v0,6,-2,13,-6,18r-198,267v39,6,111,-17,111,23v0,13,-10,23,-23,23r-120,0r0,63r120,0v13,0,23,10,23,23v0,13,-10,23,-23,23r-120,0r0,180v0,18,-15,33,-33,33v-18,0,-33,-15,-33,-33r0,-180r-119,0v-13,0,-24,-10,-24,-23v0,-13,11,-23,24,-23r119,0r0,-63r-119,0v-13,0,-24,-10,-24,-23v0,-40,72,-17,111,-23r-197,-267v-16,-18,-1,-49,23,-48v9,0,19,4,25,12r214,292","w":578},"\u0192":{"d":"484,-650v-3,24,-29,29,-58,26v-125,-14,-113,141,-137,240r93,0v14,0,22,10,20,24v-8,43,-77,21,-122,26r-64,362v-20,119,-77,174,-211,166v-14,0,-22,-11,-20,-25v2,-23,27,-25,55,-25v74,0,101,-29,115,-108r65,-370v-35,-3,-92,13,-87,-26v5,-35,58,-22,96,-24r22,-125v20,-120,78,-173,212,-165v14,0,23,10,21,24","w":499},"\u00a7":{"d":"508,-618v25,20,-2,61,-29,41v-49,-36,-123,-51,-174,-51v-58,0,-161,15,-161,91v0,73,132,106,206,133v90,33,179,65,179,159v0,80,-81,131,-164,140v96,37,165,74,165,154v0,106,-122,153,-228,153v-77,0,-175,-26,-229,-78v-22,-21,7,-56,31,-36v52,43,123,64,195,64v66,0,170,-19,170,-103v0,-146,-380,-103,-380,-298v0,-90,103,-136,177,-133v-78,-32,-178,-64,-178,-158v0,-105,128,-138,212,-138v61,0,153,16,208,60xm467,-246v0,-75,-105,-96,-163,-96v-60,0,-153,18,-153,95v0,148,317,140,316,1","w":595},"\u00a4":{"d":"656,-161v24,-29,67,8,45,38v-64,87,-155,136,-262,136v-165,0,-291,-119,-325,-267v-37,-5,-104,16,-104,-22v0,-37,62,-18,97,-22v-1,-23,-1,-47,0,-69v-36,-4,-97,15,-97,-23v0,-37,68,-16,104,-21v33,-149,160,-267,325,-267v91,0,169,34,227,95v25,26,-11,67,-40,42v-52,-45,-106,-78,-187,-78v-133,0,-228,92,-258,208r141,0v12,0,22,9,22,21v0,12,-10,23,-22,23r-149,0v-3,22,-2,46,0,69r149,0v12,0,22,10,22,22v0,12,-10,22,-22,22r-141,0v30,115,125,208,258,208v104,0,162,-50,217,-115","w":767},"'":{"d":"144,-463v0,14,-10,25,-24,25v-14,0,-25,-11,-25,-25r0,-188v0,-14,11,-24,25,-24v14,0,24,10,24,24r0,188","w":239},"\u201c":{"d":"312,-669v11,-13,34,-1,26,16v-34,41,-51,81,-51,127v26,-5,48,18,48,44v0,25,-19,44,-44,44v-29,0,-48,-21,-48,-50v0,-61,22,-125,69,-181xm178,-669v11,-13,34,-1,26,16v-34,41,-51,81,-51,127v26,-5,48,18,48,44v0,25,-19,44,-44,44v-29,0,-47,-21,-47,-50v0,-61,21,-125,68,-181","w":434},"\u00ab":{"d":"470,-405v14,-16,41,-2,41,17v0,6,-4,12,-8,17r-163,169r164,169v14,15,4,42,-17,41v-6,0,-12,-3,-17,-8r-180,-185v-9,-8,-9,-25,0,-34xm262,-405v14,-16,42,-2,41,17v0,6,-3,12,-7,17r-164,169r164,169v15,15,4,41,-17,41v-6,0,-12,-3,-17,-8r-180,-185v-9,-8,-9,-25,0,-34","w":646},"\u2039":{"d":"263,-405v15,-16,40,-2,40,17v0,6,-3,12,-7,17r-164,169r164,170v15,14,3,41,-17,40v-6,0,-12,-2,-16,-7r-181,-186v-9,-8,-9,-25,0,-34","w":438},"\u203a":{"d":"142,-371v-15,-15,-3,-40,17,-41v6,0,11,2,16,7r181,186v9,9,9,26,0,34r-181,186v-13,16,-42,3,-40,-17v0,-6,3,-11,7,-16r164,-170","w":438},"\ufb01":{"d":"344,-649v0,25,-26,25,-53,25v-74,0,-95,29,-95,108r0,83v42,6,117,-18,117,25v0,43,-76,19,-117,25r0,361v0,17,-13,30,-30,30v-17,0,-30,-13,-30,-30r0,-361v-35,-3,-90,13,-91,-25v0,-38,56,-22,91,-25v-10,-154,16,-241,183,-241v14,0,25,11,25,25xm504,-594v0,20,-15,36,-35,36v-20,0,-37,-16,-37,-36v0,-20,17,-36,37,-36v20,0,35,16,35,36xm498,-22v0,17,-12,30,-29,30v-17,0,-31,-13,-31,-30r0,-390v0,-17,14,-30,31,-30v17,0,29,13,29,30r0,390","w":604},"\ufb02":{"d":"344,-649v0,25,-26,25,-53,25v-74,0,-95,29,-95,108r0,83v42,6,117,-18,117,25v0,43,-76,19,-117,25r0,361v0,17,-13,30,-30,30v-17,0,-30,-13,-30,-30r0,-361v-35,-3,-90,13,-91,-25v0,-38,56,-22,91,-25v-10,-154,16,-241,183,-241v14,0,25,11,25,25xm510,-21v0,17,-12,29,-29,29v-17,0,-31,-12,-31,-29r0,-624v0,-17,14,-30,31,-30v17,0,29,13,29,30r0,624","w":610},"\u2013":{"d":"482,-268v0,15,-12,27,-27,27r-334,0v-15,0,-26,-12,-26,-27v0,-15,11,-26,26,-26r334,0v15,0,27,11,27,26","w":577},"\u2020":{"d":"363,-469v0,13,-10,24,-23,24r-105,0r0,562v0,14,-12,26,-26,26v-14,0,-25,-12,-25,-26r0,-562r-106,0v-13,0,-23,-11,-23,-24v0,-13,10,-22,23,-22r106,0r0,-158v0,-14,11,-26,25,-26v14,0,26,12,26,26r0,158r105,0v13,0,23,9,23,22","w":418},"\u2021":{"d":"363,-15v0,13,-10,23,-23,23r-105,0r0,157v0,14,-12,26,-26,26v-14,0,-26,-12,-26,-26r0,-157r-104,0v-13,0,-24,-10,-24,-23v0,-13,11,-23,24,-23r104,0r0,-407r-104,0v-13,0,-24,-11,-24,-24v0,-13,11,-23,24,-23r104,0r0,-157v0,-14,12,-26,26,-26v14,0,26,12,26,26r0,157r105,0v13,0,23,10,23,23v0,13,-10,24,-23,24r-105,0r0,407r105,0v13,0,23,10,23,23","w":418},"\u00b7":{"d":"187,-315v0,21,-18,39,-39,39v-21,0,-38,-18,-38,-39v0,-21,17,-38,38,-38v21,0,39,17,39,38","w":297},"\u00b6":{"d":"398,183v0,12,-10,21,-22,21v-12,0,-22,-9,-22,-21r0,-809r-78,0r0,809v0,12,-11,21,-23,21v-12,0,-21,-9,-21,-21r0,-531v-87,-1,-157,-72,-157,-159v0,-88,71,-159,158,-159r143,0v11,0,22,10,22,22r0,827","w":513},"\u2022":{"d":"329,-363v0,70,-57,127,-127,127v-70,0,-127,-57,-127,-127v0,-70,57,-127,127,-127v70,0,127,57,127,127","w":404},"\u201a":{"d":"95,137v29,-45,55,-84,52,-133v-25,5,-48,-19,-48,-44v0,-25,20,-44,45,-44v29,0,46,19,46,52v0,61,-20,123,-67,179v-9,11,-29,3,-28,-10","w":300},"\u201e":{"d":"256,147v-11,13,-34,1,-26,-16v34,-41,51,-80,51,-126v-28,2,-47,-19,-48,-45v0,-25,19,-44,44,-44v29,0,48,21,48,50v0,61,-22,125,-69,181xm122,147v-11,13,-34,1,-26,-16v34,-41,51,-80,51,-126v-28,1,-47,-19,-48,-45v0,-25,20,-44,45,-44v29,0,47,21,47,50v0,61,-22,125,-69,181","w":435},"\u201d":{"d":"256,-444v-11,13,-34,1,-26,-16v34,-41,51,-80,51,-126v-28,2,-47,-19,-48,-45v0,-25,19,-44,44,-44v29,0,48,21,48,50v0,61,-22,125,-69,181xm122,-444v-11,13,-34,1,-26,-16v34,-41,51,-80,51,-126v-28,1,-47,-19,-48,-45v0,-25,20,-44,45,-44v29,0,47,21,47,50v0,61,-22,125,-69,181","w":435},"\u00bb":{"d":"350,-371v-15,-15,-3,-41,17,-41v6,0,13,2,17,7r180,186v9,9,9,26,0,34r-180,185v-14,16,-41,5,-41,-16v0,-6,3,-12,7,-17r164,-169xm142,-371v-15,-15,-3,-41,18,-41v6,0,11,2,16,7r180,186v9,9,9,26,0,34r-180,185v-14,16,-42,5,-41,-16v0,-6,3,-12,7,-17r164,-169","w":646},"\u2026":{"d":"726,-40v0,25,-20,45,-45,45v-25,0,-44,-20,-44,-45v0,-25,19,-45,44,-45v25,0,45,20,45,45xm463,-40v0,25,-20,45,-45,45v-25,0,-45,-20,-45,-45v0,-25,20,-45,45,-45v25,0,45,20,45,45xm200,-40v0,25,-20,45,-45,45v-25,0,-45,-20,-45,-45v0,-25,20,-45,45,-45v25,0,45,20,45,45","w":836},"\u2030":{"d":"1162,-142v0,86,-69,155,-155,155v-86,0,-155,-69,-155,-155v0,-86,69,-155,155,-155v86,0,155,69,155,155xm771,-142v0,86,-69,155,-155,155v-86,0,-156,-69,-156,-155v0,-86,70,-155,156,-155v86,0,155,69,155,155xm566,-665v14,-23,47,-2,35,20r-357,643v-13,22,-48,3,-36,-20xm355,-523v0,86,-69,155,-155,155v-86,0,-155,-69,-155,-155v0,-86,69,-155,155,-155v86,0,155,69,155,155xm1119,-142v0,-65,-45,-116,-112,-116v-67,0,-112,51,-112,116v0,65,45,115,112,115v67,0,112,-50,112,-115xm727,-142v0,-65,-44,-116,-111,-116v-67,0,-112,51,-112,116v0,65,45,115,112,115v67,0,111,-50,111,-115xm312,-523v0,-65,-45,-116,-112,-116v-67,0,-111,51,-111,116v0,65,44,116,111,116v67,0,112,-51,112,-116","w":1207},"\u00bf":{"d":"343,-630v0,25,-20,45,-45,45v-25,0,-45,-20,-45,-45v0,-25,20,-45,45,-45v25,0,45,20,45,45xm453,-91v17,-11,41,0,42,19v1,8,-3,17,-11,23v-42,34,-119,62,-194,62v-110,0,-205,-58,-205,-161v0,-108,105,-174,159,-244v23,-29,29,-55,29,-97v0,-16,11,-28,27,-28v16,0,29,12,29,28v0,61,-11,101,-41,135v-55,63,-143,125,-143,206v0,67,67,107,142,107v70,0,114,-15,166,-50","w":575},"`":{"d":"105,-593v-18,-10,-9,-44,13,-42v5,0,10,1,14,4r129,92v22,16,-2,57,-27,39","w":365},"\u00b4":{"d":"233,-631v16,-11,37,1,37,19v0,8,-4,15,-10,19r-129,93v-24,15,-50,-22,-27,-39","w":365},"\u02c6":{"d":"77,-493v-14,9,-32,-2,-32,-18v0,-7,4,-13,10,-17v40,-23,72,-54,117,-72v46,17,79,48,119,72v22,13,0,49,-23,35r-96,-63","w":345},"\u02dc":{"d":"235,-542v35,0,45,-48,74,-28v3,3,5,8,5,12v-9,33,-48,55,-80,55v-45,0,-63,-36,-106,-36v-34,0,-41,29,-64,36v-11,0,-18,-8,-19,-18v10,-33,51,-57,83,-57v47,0,67,36,107,36","w":359},"\u00af":{"d":"331,-548v0,11,-8,20,-19,20r-218,0v-11,0,-19,-9,-19,-20v0,-11,8,-19,19,-19r218,0v11,0,19,8,19,19","w":406},"\u02d8":{"d":"280,-605v-1,131,-225,134,-225,-1v0,-10,8,-17,17,-17v10,0,20,5,20,18v0,42,28,68,76,68v47,0,75,-25,75,-68v0,-11,9,-17,18,-17v10,0,19,6,19,17","w":335},"\u02d9":{"d":"178,-558v0,20,-16,37,-36,37v-20,0,-37,-17,-37,-37v0,-20,17,-35,37,-35v20,0,36,15,36,35","w":283},"\u00a8":{"d":"319,-545v0,20,-15,36,-35,36v-20,0,-35,-16,-35,-36v0,-20,15,-35,35,-35v20,0,35,15,35,35xm140,-545v0,20,-15,36,-35,36v-20,0,-35,-16,-35,-36v0,-20,15,-35,35,-35v20,0,35,15,35,35","w":389},"\u02da":{"d":"242,-572v0,51,-41,94,-93,94v-52,0,-94,-42,-94,-94v0,-52,43,-93,94,-93v52,0,93,41,93,93xm214,-572v0,-36,-28,-64,-65,-64v-37,0,-65,28,-65,64v0,36,28,66,65,66v37,0,65,-30,65,-66","w":297},"\u00b8":{"d":"145,218v-25,0,-72,-2,-80,-28v7,-29,49,-4,77,-4v36,0,66,-18,66,-56v0,-53,-57,-58,-107,-50v-6,0,-13,-4,-12,-12v1,-8,19,-64,20,-68r29,0r-20,55v71,-13,132,9,132,73v0,56,-48,90,-105,90","w":315},"\u02dd":{"d":"299,-652v11,-28,53,-10,43,17r-61,147v-9,25,-52,11,-44,-14v17,-53,42,-99,62,-150xm182,-666v13,3,23,18,17,33r-60,145v-12,27,-55,9,-43,-19r60,-145v4,-10,16,-17,26,-14","w":438},"\u02db":{"d":"244,144v-6,25,-51,29,-74,30v-62,0,-105,-36,-105,-92v0,-29,24,-82,57,-82r32,0v-31,24,-50,49,-50,82v-1,69,76,71,125,51v8,-3,15,4,15,11","w":309},"\u02c7":{"d":"268,-594v13,-10,32,1,32,17v0,7,-3,13,-9,17r-107,70v-8,4,-18,3,-24,-2r-105,-68v-17,-9,-9,-38,9,-38v42,16,72,45,109,66","w":345},"\u2014":{"d":"816,-274v0,15,-12,27,-27,27r-667,0v-15,0,-27,-12,-27,-27v0,-15,12,-27,27,-27r667,0v15,0,27,12,27,27","w":911},"\u00c6":{"d":"87,-3v-24,30,-69,-6,-47,-36r455,-616v6,-8,15,-11,24,-11r401,0v17,0,30,12,30,29v0,16,-13,31,-30,31r-351,0r0,228r198,0v17,0,30,14,30,31v0,17,-13,29,-30,29r-198,0r0,258r366,0v17,0,30,13,30,30v0,17,-13,30,-30,30r-399,0v-18,0,-33,-15,-33,-33r0,-156r-279,0xm503,-244r0,-323r-237,323r237,0","w":1005},"\u00aa":{"d":"72,-630v21,-37,85,-48,122,-48v83,0,133,35,133,120r0,166v0,11,-9,21,-20,21v-19,0,-23,-18,-21,-39v-49,69,-221,51,-221,-58v0,-108,163,-125,221,-65v5,-75,-21,-110,-95,-110v-38,0,-70,15,-100,30v-9,0,-20,-7,-19,-17xm286,-468v0,-48,-44,-67,-92,-67v-48,0,-90,17,-90,67v1,99,182,83,182,0","w":412},"\u0141":{"d":"594,-30v0,16,-12,30,-29,30r-386,0v-18,0,-32,-15,-32,-33r0,-297v-31,4,-107,57,-117,8v-3,-13,4,-26,16,-30r101,-33r0,-257v0,-18,14,-33,32,-33v18,0,33,15,33,33r0,235v9,-3,121,-43,124,-41v13,-4,27,7,30,20v3,12,-4,26,-16,30r-138,45r0,293r353,0v16,0,29,14,29,30","w":629},"\u00d8":{"d":"717,-333v0,183,-140,346,-333,346v-56,0,-108,-13,-153,-37r-50,90v-4,8,-13,10,-21,6v-8,-4,-10,-13,-6,-21r50,-91v-95,-63,-154,-174,-154,-293v0,-183,141,-345,334,-345v56,0,107,13,152,37r50,-90v4,-8,13,-10,21,-6v8,4,11,13,7,21r-51,91v95,63,154,173,154,292xm651,-333v0,-96,-43,-186,-117,-239r-274,494v36,20,78,32,124,32v161,0,267,-137,267,-287xm507,-588v-36,-20,-77,-31,-123,-31v-161,0,-269,136,-269,286v0,96,44,187,118,240","w":767},"\u0152":{"d":"1113,-29v0,17,-13,29,-30,29r-399,0v-53,-3,-27,-87,-33,-137v-53,85,-154,150,-267,150v-193,0,-334,-163,-334,-346v0,-183,141,-345,334,-345v113,0,212,63,267,148v6,-50,-20,-136,33,-136r384,0v17,0,31,13,31,30v0,17,-14,30,-31,30r-351,0r0,229r198,0v17,0,30,13,30,30v0,17,-13,30,-30,30r-198,0r0,257r366,0v17,0,30,14,30,31xm651,-335v0,-152,-106,-284,-267,-284v-161,0,-268,136,-268,286v0,150,107,286,268,286v161,0,267,-136,267,-288","w":1153},"\u00ba":{"d":"371,-523v0,86,-70,155,-156,155v-86,0,-155,-69,-155,-155v0,-86,69,-155,155,-155v86,0,156,69,156,155xm330,-523v0,-65,-49,-119,-115,-119v-66,0,-114,54,-114,119v0,65,48,120,114,120v66,0,115,-55,115,-120","w":431},"\u00e6":{"d":"91,-361v-23,1,-33,-35,-10,-47v113,-59,302,-55,345,52v40,-55,104,-90,179,-90v125,0,220,102,220,224v0,13,-9,21,-23,21r-358,0v3,90,76,162,169,162v66,0,112,-28,147,-70v16,-19,44,-6,44,15v0,6,-2,11,-6,16v-34,46,-104,90,-187,90v-77,0,-146,-37,-187,-96v-29,60,-91,96,-184,96v-109,0,-185,-61,-185,-145v0,-92,77,-144,178,-144v65,0,118,18,149,51v8,-115,-22,-169,-140,-169v-57,0,-103,18,-151,34xm765,-246v-9,-84,-72,-150,-160,-150v-88,0,-151,65,-160,150r320,0xm382,-134v0,-71,-64,-96,-135,-96v-70,0,-133,28,-133,97v0,69,69,98,130,98v75,0,138,-41,138,-99","w":860},"\u0131":{"d":"160,-22v0,17,-13,30,-30,30v-17,0,-30,-13,-30,-30r0,-390v0,-17,13,-30,30,-30v17,0,30,13,30,30r0,390","w":260},"\u0142":{"d":"366,-435v3,13,-4,26,-16,30r-123,40r0,343v0,16,-13,30,-30,30v-17,0,-30,-13,-30,-30r0,-323v-8,3,-104,38,-107,36v-13,4,-27,-7,-30,-20v-3,-12,4,-26,16,-30r121,-40r0,-246v0,-17,13,-30,30,-30v17,0,30,14,30,30r0,226v9,-3,106,-38,109,-36v13,-4,27,7,30,20","w":396},"\u00f8":{"d":"498,-217v0,161,-170,280,-327,207r-36,65v-4,7,-13,10,-20,6v-7,-4,-9,-13,-5,-20r36,-65v-64,-41,-106,-112,-106,-193v0,-161,170,-280,328,-207r36,-65v4,-7,13,-10,20,-6v7,4,9,13,5,20r-36,65v64,41,105,112,105,193xm439,-217v0,-60,-28,-113,-72,-145r-170,305v119,55,242,-39,242,-160xm342,-377v-119,-55,-242,39,-242,160v0,60,28,112,72,144","w":538},"\u0153":{"d":"817,-109v16,-19,44,-7,43,15v0,6,-1,11,-5,16v-34,46,-105,90,-188,90v-86,0,-160,-47,-199,-116v-39,69,-114,116,-199,116v-127,0,-229,-102,-229,-229v0,-127,102,-229,229,-229v85,0,158,46,198,114v38,-69,110,-114,195,-114v125,0,219,102,219,224v0,13,-9,21,-23,21r-357,0v3,90,75,162,168,162v66,0,113,-28,148,-70xm821,-246v-9,-84,-71,-149,-159,-149v-88,0,-152,64,-161,149r320,0xm439,-217v0,-96,-73,-176,-170,-176v-97,0,-169,80,-169,176v0,96,72,176,169,176v97,0,170,-80,170,-176","w":916},"\u00df":{"d":"587,-183v0,101,-78,184,-197,184r-137,0v-16,0,-30,-13,-30,-29v0,-16,14,-30,30,-30r144,0v78,0,125,-62,125,-131v0,-69,-47,-131,-125,-131r-144,0v-16,0,-30,-14,-30,-30v0,-49,89,-28,137,-28v75,0,118,-48,118,-112v0,-74,-51,-130,-154,-130v-103,0,-145,64,-145,149r0,443v0,18,-14,32,-32,32v-18,0,-32,-14,-32,-32r0,-441v0,-119,73,-209,209,-209v140,0,219,79,219,182v0,62,-34,115,-90,140v83,18,134,92,134,173","w":647},"\u00d0":{"d":"670,-333v0,179,-123,333,-323,333r-181,0v-18,0,-33,-15,-33,-33r0,-270v-44,-6,-123,19,-123,-27v0,-47,79,-22,123,-28r0,-276v0,-18,15,-32,33,-32r181,0v200,0,323,154,323,333xm604,-333v0,-148,-93,-274,-263,-274r-142,0r0,249r123,0v15,0,29,13,29,28v0,15,-14,27,-29,27r-123,0r0,244r142,0v170,0,263,-126,263,-274","w":725},"\u00f0":{"d":"253,-674v43,6,83,55,105,74v21,-8,44,-45,70,-24v12,29,-30,37,-45,52v79,97,112,209,112,337v0,149,-90,248,-223,248v-133,0,-222,-105,-222,-229v0,-124,89,-229,222,-229v72,0,118,33,147,68v-11,-57,-36,-117,-78,-166r-62,41v-9,6,-20,4,-26,-5v-6,-9,-4,-19,5,-25r58,-38v-22,-22,-50,-44,-75,-61v-18,-13,-10,-46,12,-43xm435,-216v0,-96,-62,-176,-163,-176v-101,0,-162,80,-162,176v0,96,61,176,162,176v101,0,163,-80,163,-176","w":555},"\u0160":{"d":"413,-822v12,-10,31,1,31,17v0,7,-3,13,-9,17r-107,70v-7,3,-17,3,-23,-2r-106,-68v-18,-9,-8,-38,10,-38v41,17,71,45,108,66xm552,-607v32,26,-3,69,-33,49v-60,-39,-118,-61,-196,-61v-92,0,-174,33,-174,110v0,77,91,106,216,150v118,41,205,85,205,187v0,125,-114,185,-249,185v-79,0,-205,-34,-267,-101v-25,-28,11,-68,40,-43v64,57,144,85,228,85v88,0,182,-32,182,-123v0,-74,-87,-103,-229,-155v-91,-33,-191,-73,-191,-185v0,-207,344,-199,468,-98","w":630},"\u0161":{"d":"397,-402v28,17,2,58,-25,42v-39,-23,-82,-36,-128,-36v-67,0,-114,21,-114,65v0,45,34,57,132,89v97,32,156,65,156,130v0,72,-71,124,-180,124v-57,0,-120,-18,-173,-57v-25,-17,2,-57,27,-39v44,31,90,47,143,47v62,0,125,-21,125,-74v0,-41,-42,-61,-147,-96v-79,-27,-140,-56,-140,-125v0,-71,74,-114,167,-114v69,0,113,16,157,44xm343,-594v13,-10,32,1,32,17v0,7,-3,13,-9,17r-107,70v-8,4,-18,3,-24,-2r-105,-68v-17,-9,-9,-38,9,-38v42,16,72,45,109,66","w":488},"\u00dd":{"d":"403,-847v14,-13,37,1,37,19v0,8,-4,15,-10,19r-129,92v-15,10,-37,0,-36,-19v0,-8,3,-14,9,-19xm503,-663v16,-23,55,-9,54,18v0,6,-2,13,-6,18r-229,310r0,292v0,18,-16,33,-34,33v-18,0,-32,-15,-32,-33r0,-292r-230,-310v-15,-19,0,-49,24,-48v9,0,18,4,24,12r214,292","w":577},"\u00fd":{"d":"376,-426v9,-26,54,-17,52,11v0,4,0,7,-2,11r-172,394v-40,88,-108,174,-214,205v-28,0,-33,-42,-6,-51v81,-26,135,-95,165,-164r-170,-393v-5,-26,40,-41,52,-13r148,341xm333,-631v16,-11,37,1,37,19v0,8,-4,15,-10,19r-129,93v-24,15,-50,-22,-27,-39","w":458},"\u00de":{"d":"621,-335v0,102,-70,189,-197,189r-244,0v-7,55,24,154,-33,154v-18,0,-32,-15,-32,-33r0,-617v0,-18,15,-33,33,-33v55,0,25,98,32,151r244,0v127,0,197,87,197,189xm556,-335v0,-69,-48,-130,-126,-130r-250,0r0,260r250,0v78,0,126,-61,126,-130","w":676},"\u00fe":{"d":"558,-217v0,127,-99,229,-225,229v-76,0,-142,-43,-174,-103r0,253v0,19,-15,30,-29,30v-17,0,-30,-13,-30,-30r0,-808v0,-17,13,-29,30,-29v17,0,31,12,31,29r0,302v32,-57,95,-102,172,-102v126,0,225,102,225,229xm498,-217v0,-96,-72,-176,-169,-176v-97,0,-168,80,-168,176v0,96,71,176,168,176v97,0,169,-80,169,-176","w":598},"\u017d":{"d":"418,-822v13,-10,32,1,32,17v0,7,-4,13,-10,17r-106,70v-8,4,-18,3,-24,-2r-106,-68v-23,-16,1,-48,23,-34r96,62xm92,0v-26,2,-41,-29,-26,-49r410,-557r-369,0v-17,0,-31,-14,-31,-30v0,-17,14,-30,31,-30r431,0v25,-1,39,30,24,49r-411,557r394,0v16,0,30,14,30,30v0,16,-13,30,-30,30r-453,0","w":635},"\u017e":{"d":"392,-433v22,-1,35,27,21,44r-277,339r256,0v14,0,25,11,25,25v0,14,-11,25,-25,25r-308,0v-25,3,-37,-25,-23,-44r277,-339r-256,0v-14,0,-26,-11,-26,-25v0,-14,12,-25,26,-25r310,0xm336,-594v13,-10,32,1,32,17v0,7,-3,13,-9,17r-107,70v-8,4,-18,3,-24,-2r-105,-68v-17,-9,-9,-38,9,-38v42,16,72,45,109,66","w":454},"\u00bd":{"d":"499,-500r-166,0r0,-166r166,0r0,166xm666,-333r-167,0r0,-167r167,0r0,167xm166,-500r-166,0r0,-166r166,0r0,166xm333,-333r-167,0r0,-167r167,0r0,167xm499,-167r-166,0r0,-166r166,0r0,166xm666,0r-167,0r0,-167r167,0r0,167xm166,-167r-166,0r0,-166r166,0r0,166xm333,0r-167,0r0,-167r167,0r0,167","w":666},"\u00bc":{"d":"499,-500r-166,0r0,-166r166,0r0,166xm666,-333r-167,0r0,-167r167,0r0,167xm166,-500r-166,0r0,-166r166,0r0,166xm333,-333r-167,0r0,-167r167,0r0,167xm499,-167r-166,0r0,-166r166,0r0,166xm666,0r-167,0r0,-167r167,0r0,167xm166,-167r-166,0r0,-166r166,0r0,166xm333,0r-167,0r0,-167r167,0r0,167","w":666},"\u00b9":{"d":"499,-500r-166,0r0,-166r166,0r0,166xm666,-333r-167,0r0,-167r167,0r0,167xm166,-500r-166,0r0,-166r166,0r0,166xm333,-333r-167,0r0,-167r167,0r0,167xm499,-167r-166,0r0,-166r166,0r0,166xm666,0r-167,0r0,-167r167,0r0,167xm166,-167r-166,0r0,-166r166,0r0,166xm333,0r-167,0r0,-167r167,0r0,167","w":666},"\u00be":{"d":"499,-500r-166,0r0,-166r166,0r0,166xm666,-333r-167,0r0,-167r167,0r0,167xm166,-500r-166,0r0,-166r166,0r0,166xm333,-333r-167,0r0,-167r167,0r0,167xm499,-167r-166,0r0,-166r166,0r0,166xm666,0r-167,0r0,-167r167,0r0,167xm166,-167r-166,0r0,-166r166,0r0,166xm333,0r-167,0r0,-167r167,0r0,167","w":666},"\u00b3":{"d":"499,-500r-166,0r0,-166r166,0r0,166xm666,-333r-167,0r0,-167r167,0r0,167xm166,-500r-166,0r0,-166r166,0r0,166xm333,-333r-167,0r0,-167r167,0r0,167xm499,-167r-166,0r0,-166r166,0r0,166xm666,0r-167,0r0,-167r167,0r0,167xm166,-167r-166,0r0,-166r166,0r0,166xm333,0r-167,0r0,-167r167,0r0,167","w":666},"\u00b2":{"d":"499,-500r-166,0r0,-166r166,0r0,166xm666,-333r-167,0r0,-167r167,0r0,167xm166,-500r-166,0r0,-166r166,0r0,166xm333,-333r-167,0r0,-167r167,0r0,167xm499,-167r-166,0r0,-166r166,0r0,166xm666,0r-167,0r0,-167r167,0r0,167xm166,-167r-166,0r0,-166r166,0r0,166xm333,0r-167,0r0,-167r167,0r0,167","w":666},"\u00a6":{"d":"148,-361v0,12,-10,21,-22,21v-12,0,-21,-9,-21,-21r0,-392v0,-12,9,-22,21,-22v12,0,22,10,22,22r0,392xm148,136v0,12,-10,22,-22,22v-12,0,-21,-10,-21,-22r0,-393v0,-12,9,-21,21,-21v12,0,22,9,22,21r0,393","w":253},"\u2212":{"d":"336,-268v0,15,-12,27,-27,27r-188,0v-15,0,-26,-12,-26,-27v0,-15,11,-26,26,-26r188,0v15,0,27,11,27,26","w":431},"\u00d7":{"d":"394,-79v16,14,5,45,-17,44v-7,0,-14,-3,-19,-8r-125,-125r-124,124v-14,17,-45,4,-44,-18v0,-7,2,-13,7,-18r125,-124r-123,-122v-17,-15,-5,-45,18,-44v7,0,14,2,19,7r122,122r124,-123v14,-17,45,-4,44,18v0,7,-3,13,-8,18r-124,124","w":467},"\u00c4":{"d":"463,-755v0,19,-16,34,-35,34v-19,0,-33,-15,-33,-34v0,-19,14,-35,33,-35v19,0,35,16,35,35xm290,-755v0,19,-15,34,-34,34v-19,0,-34,-15,-34,-34v0,-19,15,-35,34,-35v19,0,34,16,34,35xm89,-11v-10,30,-61,20,-59,-12v0,-4,0,-9,2,-13r282,-620v3,-7,14,-19,29,-19v15,0,25,13,28,19r282,620v16,36,-40,62,-56,26r-84,-185r-341,0xm487,-252r-144,-320r-145,320r289,0","w":685},"\u00c5":{"d":"436,-796v0,51,-41,94,-93,94v-52,0,-94,-42,-94,-94v0,-52,43,-93,94,-93v52,0,93,41,93,93xm408,-796v0,-36,-28,-65,-65,-65v-37,0,-65,29,-65,65v0,36,28,66,65,66v37,0,65,-30,65,-66xm89,-11v-10,30,-61,20,-59,-12v0,-4,0,-9,2,-13r282,-620v3,-7,14,-19,29,-19v15,0,25,13,28,19r282,620v16,36,-40,62,-56,26r-84,-185r-341,0xm487,-252r-144,-320r-145,320r289,0","w":685},"\u00c7":{"d":"601,-161v26,-31,66,9,44,38v-66,86,-155,136,-262,136v-193,0,-333,-163,-333,-346v0,-183,140,-345,333,-345v91,0,169,34,227,95v27,28,-12,66,-39,42v-52,-45,-107,-78,-188,-78v-162,0,-267,137,-267,286v0,149,105,287,267,287v104,0,163,-50,218,-115xm406,218v-25,0,-72,-2,-80,-28v7,-29,49,-4,77,-4v36,0,66,-18,66,-56v0,-53,-57,-58,-107,-50v-6,0,-13,-4,-12,-12v1,-8,19,-64,20,-68r29,0r-20,55v71,-13,132,9,132,73v0,56,-48,90,-105,90","w":712},"\u00c9":{"d":"431,-847v14,-13,37,1,37,19v0,8,-4,15,-10,19r-129,92v-15,10,-37,0,-36,-19v0,-8,3,-14,9,-19xm567,-30v0,17,-13,30,-30,30r-399,0v-18,0,-33,-15,-33,-33r0,-601v0,-18,15,-32,33,-32r384,0v17,0,31,13,31,30v0,17,-14,30,-31,30r-352,0r0,229r199,0v17,0,30,13,30,30v0,17,-13,30,-30,30r-199,0r0,257r367,0v17,0,30,13,30,30","w":607},"\u00d1":{"d":"421,-759v34,0,44,-48,73,-28v3,3,6,8,6,12v-10,32,-48,53,-80,54v-45,0,-63,-36,-106,-36v-33,0,-42,28,-64,36v-10,0,-21,-7,-19,-17v6,-36,52,-58,83,-58v47,0,67,37,107,37xm617,-23v2,28,-40,42,-56,19r-393,-552r0,533v0,17,-15,31,-32,31v-17,0,-31,-14,-31,-31r0,-620v-3,-28,43,-44,57,-19v0,0,320,458,392,551r0,-532v0,-17,14,-32,31,-32v17,0,32,15,32,32r0,620","w":722},"\u00d6":{"d":"503,-755v0,19,-15,34,-34,34v-19,0,-33,-15,-33,-34v0,-19,14,-35,33,-35v19,0,34,16,34,35xm331,-755v0,19,-15,34,-34,34v-19,0,-34,-15,-34,-34v0,-19,15,-35,34,-35v19,0,34,16,34,35xm716,-333v0,183,-139,346,-332,346v-193,0,-334,-163,-334,-346v0,-183,141,-345,334,-345v193,0,332,162,332,345xm651,-333v0,-150,-106,-286,-267,-286v-161,0,-269,136,-269,286v0,150,108,287,269,287v161,0,267,-137,267,-287","w":766},"\u00dc":{"d":"470,-755v0,19,-15,34,-34,34v-19,0,-34,-15,-34,-34v0,-19,15,-35,34,-35v19,0,34,16,34,35xm297,-755v0,19,-15,34,-34,34v-19,0,-34,-15,-34,-34v0,-19,15,-35,34,-35v19,0,34,16,34,35xm609,-264v0,169,-97,277,-259,277v-162,0,-260,-108,-260,-277r0,-378v0,-18,15,-33,33,-33v18,0,32,15,32,33r0,390v0,123,69,206,195,206v126,0,193,-83,193,-206r0,-390v0,-18,16,-33,34,-33v18,0,32,15,32,33r0,378","w":699},"\u00e1":{"d":"92,-361v-24,1,-35,-35,-11,-47v141,-70,361,-54,361,134r0,252v0,17,-12,30,-29,30v-28,0,-34,-26,-31,-57v-25,33,-84,61,-149,61v-101,0,-178,-61,-178,-145v0,-92,77,-144,178,-144v65,0,118,18,149,51v8,-115,-22,-169,-140,-169v-57,0,-103,18,-150,34xm382,-134v0,-71,-64,-96,-135,-96v-70,0,-133,28,-133,97v0,69,69,98,130,98v75,0,138,-41,138,-99xm354,-631v16,-11,37,1,37,19v0,8,-4,15,-10,19r-129,93v-24,15,-50,-22,-27,-39","w":512},"\u00e0":{"d":"92,-361v-24,1,-35,-35,-11,-47v141,-70,361,-54,361,134r0,252v0,17,-12,30,-29,30v-28,0,-34,-26,-31,-57v-25,33,-84,61,-149,61v-101,0,-178,-61,-178,-145v0,-92,77,-144,178,-144v65,0,118,18,149,51v8,-115,-22,-169,-140,-169v-57,0,-103,18,-150,34xm382,-134v0,-71,-64,-96,-135,-96v-70,0,-133,28,-133,97v0,69,69,98,130,98v75,0,138,-41,138,-99xm126,-593v-18,-10,-9,-44,13,-42v5,0,10,1,14,4r129,92v22,16,-2,57,-27,39","w":512},"\u00e2":{"d":"92,-361v-24,1,-35,-35,-11,-47v141,-70,361,-54,361,134r0,252v0,17,-12,30,-29,30v-28,0,-34,-26,-31,-57v-25,33,-84,61,-149,61v-101,0,-178,-61,-178,-145v0,-92,77,-144,178,-144v65,0,118,18,149,51v8,-115,-22,-169,-140,-169v-57,0,-103,18,-150,34xm382,-134v0,-71,-64,-96,-135,-96v-70,0,-133,28,-133,97v0,69,69,98,130,98v75,0,138,-41,138,-99xm152,-493v-14,9,-32,-2,-32,-18v0,-7,4,-13,10,-17v40,-23,72,-54,117,-72v46,17,79,48,119,72v22,13,0,49,-23,35r-96,-63","w":512},"\u00e4":{"d":"92,-361v-24,1,-35,-35,-11,-47v141,-70,361,-54,361,134r0,252v0,17,-12,30,-29,30v-28,0,-34,-26,-31,-57v-25,33,-84,61,-149,61v-101,0,-178,-61,-178,-145v0,-92,77,-144,178,-144v65,0,118,18,149,51v8,-115,-22,-169,-140,-169v-57,0,-103,18,-150,34xm382,-134v0,-71,-64,-96,-135,-96v-70,0,-133,28,-133,97v0,69,69,98,130,98v75,0,138,-41,138,-99xm386,-545v0,20,-15,36,-35,36v-20,0,-35,-16,-35,-36v0,-20,15,-35,35,-35v20,0,35,15,35,35xm207,-545v0,20,-15,36,-35,36v-20,0,-35,-16,-35,-36v0,-20,15,-35,35,-35v20,0,35,15,35,35","w":512},"\u00e3":{"d":"92,-361v-24,1,-35,-35,-11,-47v141,-70,361,-54,361,134r0,252v0,17,-12,30,-29,30v-28,0,-34,-26,-31,-57v-25,33,-84,61,-149,61v-101,0,-178,-61,-178,-145v0,-92,77,-144,178,-144v65,0,118,18,149,51v8,-115,-22,-169,-140,-169v-57,0,-103,18,-150,34xm382,-134v0,-71,-64,-96,-135,-96v-70,0,-133,28,-133,97v0,69,69,98,130,98v75,0,138,-41,138,-99xm312,-542v35,0,45,-48,74,-28v3,3,5,8,5,12v-9,33,-48,55,-80,55v-45,0,-63,-36,-106,-36v-34,0,-41,29,-64,36v-11,0,-18,-8,-19,-18v10,-33,51,-57,83,-57v47,0,67,36,107,36","w":512},"\u00e5":{"d":"92,-361v-24,1,-35,-35,-11,-47v141,-70,361,-54,361,134r0,252v0,17,-12,30,-29,30v-28,0,-34,-26,-31,-57v-25,33,-84,61,-149,61v-101,0,-178,-61,-178,-145v0,-92,77,-144,178,-144v65,0,118,18,149,51v8,-115,-22,-169,-140,-169v-57,0,-103,18,-150,34xm382,-134v0,-71,-64,-96,-135,-96v-70,0,-133,28,-133,97v0,69,69,98,130,98v75,0,138,-41,138,-99xm341,-572v0,51,-41,94,-93,94v-52,0,-94,-42,-94,-94v0,-52,43,-93,94,-93v52,0,93,41,93,93xm313,-572v0,-36,-28,-64,-65,-64v-37,0,-65,28,-65,64v0,36,28,66,65,66v37,0,65,-30,65,-66","w":512},"\u00e7":{"d":"411,-109v15,-18,44,-4,43,17v0,6,-2,12,-6,17v-40,50,-106,87,-179,87v-127,0,-229,-98,-229,-229v0,-131,102,-229,229,-229v61,0,112,23,158,63v24,22,-7,58,-32,39v-40,-31,-79,-50,-126,-50v-97,0,-169,79,-169,177v0,98,72,177,169,177v63,0,108,-32,142,-69xm285,218v-25,0,-72,-2,-80,-28v7,-29,49,-4,77,-4v36,0,66,-18,66,-56v0,-53,-57,-58,-107,-50v-6,0,-13,-4,-12,-12v1,-8,19,-64,20,-68r29,0r-20,55v71,-13,132,9,132,73v0,56,-48,90,-105,90","w":488},"\u00e9":{"d":"418,-109v16,-19,44,-6,44,15v0,5,-2,11,-6,16v-34,46,-105,90,-188,90v-127,0,-228,-101,-228,-229v0,-128,96,-229,223,-229v125,0,219,102,219,224v0,13,-9,21,-23,21r-357,0v3,90,75,162,168,162v66,0,113,-28,148,-70xm422,-246v-9,-84,-71,-149,-159,-149v-88,0,-152,64,-161,149r320,0xm381,-631v16,-11,37,1,37,19v0,8,-4,15,-10,19r-129,93v-24,15,-50,-22,-27,-39","w":517},"\u00e8":{"d":"418,-109v16,-19,44,-6,44,15v0,5,-2,11,-6,16v-34,46,-105,90,-188,90v-127,0,-228,-101,-228,-229v0,-128,96,-229,223,-229v125,0,219,102,219,224v0,13,-9,21,-23,21r-357,0v3,90,75,162,168,162v66,0,113,-28,148,-70xm422,-246v-9,-84,-71,-149,-159,-149v-88,0,-152,64,-161,149r320,0xm118,-593v-18,-10,-9,-44,13,-42v5,0,10,1,14,4r129,92v22,16,-2,57,-27,39","w":517},"\u00ea":{"d":"418,-109v16,-19,44,-6,44,15v0,5,-2,11,-6,16v-34,46,-105,90,-188,90v-127,0,-228,-101,-228,-229v0,-128,96,-229,223,-229v125,0,219,102,219,224v0,13,-9,21,-23,21r-357,0v3,90,75,162,168,162v66,0,113,-28,148,-70xm422,-246v-9,-84,-71,-149,-159,-149v-88,0,-152,64,-161,149r320,0xm171,-493v-14,9,-32,-2,-32,-18v0,-7,4,-13,10,-17v40,-23,72,-54,117,-72v46,17,79,48,119,72v22,13,0,49,-23,35r-96,-63","w":517},"\u00eb":{"d":"418,-109v16,-19,44,-6,44,15v0,5,-2,11,-6,16v-34,46,-105,90,-188,90v-127,0,-228,-101,-228,-229v0,-128,96,-229,223,-229v125,0,219,102,219,224v0,13,-9,21,-23,21r-357,0v3,90,75,162,168,162v66,0,113,-28,148,-70xm422,-246v-9,-84,-71,-149,-159,-149v-88,0,-152,64,-161,149r320,0xm388,-545v0,20,-15,36,-35,36v-20,0,-35,-16,-35,-36v0,-20,15,-35,35,-35v20,0,35,15,35,35xm209,-545v0,20,-15,36,-35,36v-20,0,-35,-16,-35,-36v0,-20,15,-35,35,-35v20,0,35,15,35,35","w":517},"\u00ed":{"d":"160,-22v0,17,-13,30,-30,30v-17,0,-30,-13,-30,-30r0,-390v0,-17,13,-30,30,-30v17,0,30,13,30,30r0,390xm240,-631v16,-11,37,1,37,19v0,8,-4,15,-10,19r-129,93v-24,15,-50,-22,-27,-39","w":260},"\u00ec":{"d":"160,-22v0,17,-13,30,-30,30v-17,0,-30,-13,-30,-30r0,-390v0,-17,13,-30,30,-30v17,0,30,13,30,30r0,390xm110,-593v-18,-10,-9,-44,13,-42v5,0,10,1,14,4r129,92v22,16,-2,57,-27,39","w":260},"\u00ee":{"d":"160,-22v0,17,-13,30,-30,30v-17,0,-30,-13,-30,-30r0,-390v0,-17,13,-30,30,-30v17,0,30,13,30,30r0,390xm134,-493v-14,9,-32,-2,-32,-18v0,-7,4,-13,10,-17v40,-23,72,-54,117,-72v46,17,79,48,119,72v22,13,0,49,-23,35r-96,-63","w":260},"\u00ef":{"d":"160,-22v0,17,-13,30,-30,30v-17,0,-30,-13,-30,-30r0,-390v0,-17,13,-30,30,-30v17,0,30,13,30,30r0,390xm351,-545v0,20,-15,36,-35,36v-20,0,-35,-16,-35,-36v0,-20,15,-35,35,-35v20,0,35,15,35,35xm172,-545v0,20,-15,36,-35,36v-20,0,-35,-16,-35,-36v0,-20,15,-35,35,-35v20,0,35,15,35,35","w":260},"\u00f1":{"d":"511,-22v0,17,-14,30,-31,30v-17,0,-29,-13,-29,-30r0,-224v0,-83,-45,-147,-139,-147v-86,0,-152,68,-152,149r0,222v0,17,-13,30,-30,30v-17,0,-30,-13,-30,-30r0,-390v0,-17,12,-30,29,-30v35,-1,31,42,30,78v33,-50,98,-82,165,-82v115,0,187,87,187,201r0,223xm358,-542v35,0,45,-48,74,-28v3,3,5,8,5,12v-9,33,-48,55,-80,55v-45,0,-63,-36,-106,-36v-34,0,-41,29,-64,36v-11,0,-18,-8,-19,-18v10,-33,51,-57,83,-57v47,0,67,36,107,36"},"\u00f3":{"d":"498,-217v0,127,-102,229,-229,229v-127,0,-229,-102,-229,-229v0,-127,102,-229,229,-229v127,0,229,102,229,229xm439,-217v0,-96,-73,-176,-170,-176v-97,0,-169,80,-169,176v0,96,72,176,169,176v97,0,170,-80,170,-176xm388,-631v16,-11,37,1,37,19v0,8,-4,15,-10,19r-129,93v-24,15,-50,-22,-27,-39","w":538},"\u00f2":{"d":"498,-217v0,127,-102,229,-229,229v-127,0,-229,-102,-229,-229v0,-127,102,-229,229,-229v127,0,229,102,229,229xm439,-217v0,-96,-73,-176,-170,-176v-97,0,-169,80,-169,176v0,96,72,176,169,176v97,0,170,-80,170,-176xm120,-593v-18,-10,-9,-44,13,-42v5,0,10,1,14,4r129,92v22,16,-2,57,-27,39","w":538},"\u00f4":{"d":"174,-493v-23,14,-45,-21,-23,-35v39,-24,72,-54,117,-72v5,0,10,1,13,4r106,68v24,15,0,49,-22,35r-96,-63xm498,-217v0,127,-102,229,-229,229v-127,0,-229,-102,-229,-229v0,-127,102,-229,229,-229v127,0,229,102,229,229xm439,-217v0,-96,-73,-176,-170,-176v-97,0,-169,80,-169,176v0,96,72,176,169,176v97,0,170,-80,170,-176","w":538},"\u00f6":{"d":"394,-545v0,20,-16,36,-35,36v-20,0,-35,-16,-35,-36v0,-20,15,-35,35,-35v19,0,35,15,35,35xm215,-545v0,20,-16,36,-35,36v-20,0,-35,-16,-35,-36v0,-20,15,-35,35,-35v19,0,35,15,35,35xm498,-217v0,127,-102,229,-229,229v-127,0,-229,-102,-229,-229v0,-127,102,-229,229,-229v127,0,229,102,229,229xm439,-217v0,-96,-73,-176,-170,-176v-97,0,-169,80,-169,176v0,96,72,176,169,176v97,0,170,-80,170,-176","w":538},"\u00f5":{"d":"498,-217v0,127,-102,229,-229,229v-127,0,-229,-102,-229,-229v0,-127,102,-229,229,-229v127,0,229,102,229,229xm439,-217v0,-96,-73,-176,-170,-176v-97,0,-169,80,-169,176v0,96,72,176,169,176v97,0,170,-80,170,-176xm323,-542v35,0,45,-48,74,-28v3,3,5,8,5,12v-9,33,-48,55,-80,55v-45,0,-63,-36,-106,-36v-34,0,-41,29,-64,36v-11,0,-18,-8,-19,-18v10,-33,51,-57,83,-57v47,0,67,36,107,36","w":538},"\u00fa":{"d":"506,-22v0,17,-13,30,-30,30v-35,1,-31,-42,-30,-78v-33,50,-97,82,-164,82v-115,0,-187,-87,-187,-201r0,-223v0,-17,13,-30,30,-30v17,0,30,13,30,30r0,224v0,83,45,147,139,147v86,0,152,-68,152,-149r0,-222v0,-17,12,-30,29,-30v17,0,31,13,31,30r0,390xm405,-631v16,-11,37,1,37,19v0,8,-4,15,-10,19r-129,93v-24,15,-50,-22,-27,-39"},"\u00f9":{"d":"506,-22v0,17,-13,30,-30,30v-35,1,-31,-42,-30,-78v-33,50,-97,82,-164,82v-115,0,-187,-87,-187,-201r0,-223v0,-17,13,-30,30,-30v17,0,30,13,30,30r0,224v0,83,45,147,139,147v86,0,152,-68,152,-149r0,-222v0,-17,12,-30,29,-30v17,0,31,13,31,30r0,390xm150,-593v-18,-10,-9,-44,13,-42v5,0,10,1,14,4r129,92v22,16,-2,57,-27,39"},"\u00fb":{"d":"506,-22v0,17,-13,30,-30,30v-35,1,-31,-42,-30,-78v-33,50,-97,82,-164,82v-115,0,-187,-87,-187,-201r0,-223v0,-17,13,-30,30,-30v17,0,30,13,30,30r0,224v0,83,45,147,139,147v86,0,152,-68,152,-149r0,-222v0,-17,12,-30,29,-30v17,0,31,13,31,30r0,390xm207,-493v-14,9,-32,-2,-32,-18v0,-7,4,-13,10,-17v40,-23,72,-54,117,-72v46,17,79,48,119,72v22,13,0,49,-23,35r-96,-63"},"\u00fc":{"d":"506,-22v0,17,-13,30,-30,30v-35,1,-31,-42,-30,-78v-33,50,-97,82,-164,82v-115,0,-187,-87,-187,-201r0,-223v0,-17,13,-30,30,-30v17,0,30,13,30,30r0,224v0,83,45,147,139,147v86,0,152,-68,152,-149r0,-222v0,-17,12,-30,29,-30v17,0,31,13,31,30r0,390xm423,-545v0,20,-15,36,-35,36v-20,0,-35,-16,-35,-36v0,-20,15,-35,35,-35v20,0,35,15,35,35xm244,-545v0,20,-15,36,-35,36v-20,0,-35,-16,-35,-36v0,-20,15,-35,35,-35v20,0,35,15,35,35"},"\u00b0":{"d":"342,-534v0,79,-64,143,-143,143v-79,0,-144,-64,-144,-143v0,-79,65,-144,144,-144v79,0,143,65,143,144xm308,-534v0,-60,-48,-109,-109,-109v-61,0,-108,49,-108,109v0,60,47,109,108,109v61,0,109,-49,109,-109","w":397},"\u00ae":{"d":"742,-333v0,191,-154,346,-345,346v-191,0,-347,-155,-347,-346v0,-191,156,-345,347,-345v191,0,345,154,345,345xm707,-333v0,-171,-134,-312,-310,-312v-176,0,-311,141,-311,312v0,171,135,313,311,313v176,0,310,-142,310,-313xm431,-487v109,-8,125,149,32,170r59,121v5,20,-25,32,-34,12r-63,-128r-105,0r0,119v0,11,-8,19,-19,19v-11,0,-20,-8,-20,-19r0,-275v0,-11,9,-19,20,-19r130,0xm487,-399v0,-29,-20,-53,-53,-53r-114,0r0,106r114,0v33,0,53,-24,53,-53","w":792},"\u00a9":{"d":"741,-333v0,191,-154,346,-345,346v-190,0,-346,-155,-346,-346v0,-191,155,-345,346,-345v191,0,345,154,345,345xm707,-333v0,-173,-137,-312,-311,-312v-174,0,-310,139,-310,312v0,173,136,313,310,313v174,0,311,-140,311,-313xm501,-416v-28,-15,-52,-41,-95,-41v-70,0,-118,59,-118,126v0,67,48,125,118,125v50,0,79,-27,96,-52v9,-13,32,-3,30,11v-17,46,-65,75,-126,75v-88,0,-157,-71,-157,-159v0,-87,68,-161,157,-161v49,0,95,21,112,57v0,9,-8,19,-17,19","w":791},"\u2122":{"d":"640,-360v0,11,-9,19,-20,19v-10,0,-19,-8,-19,-19r0,-209v-32,66,-97,216,-98,218v-5,14,-28,13,-34,0r-99,-217r0,208v0,10,-9,19,-19,19v-10,0,-19,-8,-19,-19r0,-291v0,-21,29,-25,37,-7r117,257r117,-258v6,-19,37,-11,37,8r0,291xm280,-648v-7,36,-76,13,-113,19r0,269v0,11,-9,19,-20,19v-11,0,-20,-8,-20,-19r0,-269r-94,0v-10,0,-18,-9,-18,-19v0,-10,8,-18,18,-18r228,0v10,0,19,8,19,18","w":700},"\u2260":{"d":"409,-177v0,13,-11,24,-24,24r-169,0r-45,75v-4,6,-12,8,-18,4v-6,-4,-9,-12,-5,-18r38,-61v-35,-3,-91,13,-91,-24v0,-43,77,-18,117,-24r49,-81r-143,0v-13,0,-23,-11,-23,-24v0,-13,10,-24,23,-24r170,0r45,-74v4,-6,12,-9,18,-5v6,4,9,12,5,18r-37,61v35,3,90,-12,90,24v0,42,-76,18,-116,24r-50,81r142,0v13,0,24,11,24,24","w":504},"\u221e":{"d":"389,-596v19,-19,52,10,32,31r-231,229r589,0v12,0,22,10,22,22v0,12,-10,22,-22,22r-589,0r231,229v19,20,-11,52,-32,32r-268,-267v-8,-7,-8,-24,0,-31","w":916},"\u00b1":{"d":"495,-565v-13,-13,-3,-39,16,-37v6,0,12,2,16,6r267,267v9,7,8,23,0,31r-267,267v-20,19,-52,-11,-32,-32r230,-229r-588,0v-12,0,-22,-10,-22,-22v0,-12,10,-22,22,-22r588,0","w":916},"\u2264":{"d":"389,-596v19,-19,52,10,32,31r-231,229r589,0v12,0,22,10,22,22v0,12,-10,22,-22,22r-589,0r231,229v19,20,-11,52,-32,32r-268,-267v-8,-7,-8,-24,0,-31","w":916},"\u2265":{"d":"495,-565v-13,-13,-3,-39,16,-37v6,0,12,2,16,6r267,267v9,7,8,23,0,31r-267,267v-20,19,-52,-11,-32,-32r230,-229r-588,0v-12,0,-22,-10,-22,-22v0,-12,10,-22,22,-22r588,0","w":916},"\u00b5":{"d":"506,-22v0,17,-13,30,-30,30v-35,1,-31,-42,-30,-78v-52,88,-215,112,-291,34r0,202v0,17,-13,29,-30,29v-17,0,-30,-12,-30,-29r0,-578v0,-17,13,-30,30,-30v17,0,30,13,30,30r0,224v0,83,45,147,139,147v86,0,152,-68,152,-149r0,-222v0,-17,12,-30,29,-30v17,0,31,13,31,30r0,390"},"\u2202":{"d":"655,-293v13,-13,39,-3,38,16v0,6,-3,12,-7,16r-267,268v-7,8,-23,8,-31,0r-267,-268v-14,-13,-3,-40,17,-38v6,0,11,2,15,6r229,231r0,-591v0,-12,10,-22,22,-22v12,0,21,10,21,22r0,591","w":808},"\u2211":{"d":"157,-423v13,0,23,10,23,22r0,325r413,-414v20,-20,56,7,32,31r-415,414r325,1v12,0,22,9,22,21v1,13,-9,24,-22,23r-377,0v-12,1,-23,-11,-23,-23r0,-378v0,-12,10,-22,22,-22","w":744},"\u220f":{"d":"57,-423v13,0,23,10,23,22r0,325r413,-414v20,-20,56,7,32,31r-415,414r325,1v12,0,22,9,22,21v1,13,-9,24,-22,23r-377,0v-12,1,-23,-11,-23,-23r0,-378v0,-12,10,-22,22,-22","w":644},"\u03c0":{"d":"590,-423v12,0,22,10,22,22r0,378v1,11,-11,24,-23,23r-377,0v-13,1,-23,-10,-22,-23v0,-12,10,-21,22,-21r325,-1r-417,-416v-18,-18,11,-50,31,-31r416,416r0,-325v0,-12,10,-22,23,-22","w":747},"\u222b":{"d":"590,-423v12,0,22,10,22,22r0,378v1,11,-11,24,-23,23r-377,0v-13,1,-23,-10,-22,-23v0,-12,10,-21,22,-21r325,-1r-417,-416v-18,-18,11,-50,31,-31r416,416r0,-325v0,-12,10,-22,23,-22","w":747},"\u03a9":{"d":"558,-644v0,13,-10,23,-22,23r-325,0r416,415v18,21,-12,51,-33,30r-414,-415r-1,325v0,12,-9,22,-21,22v-13,1,-24,-9,-23,-22r0,-377v-1,-12,11,-23,23,-23r378,0v12,0,22,10,22,22","w":744},"\u00ac":{"d":"512,-20v0,16,-13,28,-29,28v-16,0,-27,-12,-27,-28r0,-224r-384,0v-15,0,-27,-11,-27,-26v0,-15,12,-28,27,-28r412,0v15,0,28,13,28,28r0,250","w":617},"\u221a":{"d":"443,-647v-1,8,-193,617,-199,638v-5,19,-34,21,-45,6r-131,-187v-14,-14,-21,-46,6,-52v9,-2,19,1,25,9r112,160r184,-585v8,-27,52,-16,48,11","w":508},"\u2248":{"d":"590,-666v11,-1,23,12,23,23r0,377v0,12,-10,22,-23,22v-12,0,-23,-9,-22,-22r0,-325r-417,417v-20,18,-49,-12,-30,-32r416,-415r-325,0v-12,0,-22,-10,-22,-23v0,-12,9,-23,22,-22r378,0","w":743},"\u0394":{"d":"153,-372v-20,19,-52,-11,-32,-32r267,-268v7,-8,24,-8,31,0r267,268v15,12,4,40,-16,38v-6,0,-11,-2,-15,-6r-229,-231r0,589v0,12,-10,22,-22,22v-12,0,-21,-10,-21,-22r0,-589","w":808},"\u00a0":{"w":300},"\u00c0":{"d":"186,-809v-18,-12,-7,-45,14,-43v5,0,10,2,14,5r128,92v19,12,8,43,-14,42v-5,0,-9,-1,-13,-4xm89,-11v-10,30,-61,20,-59,-12v0,-4,0,-9,2,-13r282,-620v3,-7,14,-19,29,-19v15,0,25,13,28,19r282,620v16,36,-40,62,-56,26r-84,-185r-341,0xm487,-252r-144,-320r-145,320r289,0","w":685},"\u00c3":{"d":"399,-759v34,0,43,-49,73,-28v3,3,5,8,5,12v-9,33,-48,54,-79,54v-45,0,-64,-36,-107,-36v-33,0,-41,29,-63,36v-11,0,-19,-7,-20,-17v9,-34,51,-58,83,-58v47,0,68,37,108,37xm89,-11v-10,30,-61,20,-59,-12v0,-4,0,-9,2,-13r282,-620v3,-7,14,-19,29,-19v15,0,25,13,28,19r282,620v16,36,-40,62,-56,26r-84,-185r-341,0xm487,-252r-144,-320r-145,320r289,0","w":685},"\u00d5":{"d":"438,-759v34,0,44,-48,73,-28v3,3,9,10,6,12v-7,35,-50,54,-79,54v-45,0,-63,-36,-106,-36v-33,0,-42,28,-64,36v-12,0,-19,-7,-20,-17v10,-34,52,-58,83,-58v48,0,67,37,107,37xm716,-333v0,183,-139,346,-332,346v-193,0,-334,-163,-334,-346v0,-183,141,-345,334,-345v193,0,332,162,332,345xm651,-333v0,-150,-106,-286,-267,-286v-161,0,-269,136,-269,286v0,150,108,287,269,287v161,0,267,-137,267,-287","w":766},"\u00f7":{"d":"265,-277v0,18,-14,32,-32,32v-18,0,-33,-14,-33,-32v0,-18,15,-33,33,-33v18,0,32,15,32,33xm405,-151v0,11,-8,20,-19,20r-307,0v-11,0,-19,-9,-19,-20v0,-11,8,-19,19,-19r307,0v11,0,19,8,19,19xm265,-25v0,18,-14,33,-32,33v-18,0,-33,-15,-33,-33v0,-18,15,-32,33,-32v18,0,32,14,32,32","w":465},"\u25ca":{"d":"495,-565v-13,-13,-3,-39,16,-37v6,0,12,2,16,6r267,267v9,7,8,23,0,31r-267,267v-20,19,-52,-11,-32,-32r230,-229r-588,0v-12,0,-22,-10,-22,-22v0,-12,10,-22,22,-22r588,0","w":916},"\u00ff":{"d":"376,-426v9,-26,54,-17,52,11v0,4,0,7,-2,11r-172,394v-40,88,-108,174,-214,205v-28,0,-33,-42,-6,-51v81,-26,135,-95,165,-164r-170,-393v-5,-26,40,-41,52,-13r148,341xm361,-545v0,20,-15,36,-35,36v-20,0,-35,-16,-35,-36v0,-20,15,-35,35,-35v20,0,35,15,35,35xm182,-545v0,20,-15,36,-35,36v-20,0,-35,-16,-35,-36v0,-20,15,-35,35,-35v20,0,35,15,35,35","w":458},"\u0178":{"d":"414,-755v0,19,-15,34,-34,34v-19,0,-34,-15,-34,-34v0,-19,15,-35,34,-35v19,0,34,16,34,35xm241,-755v0,19,-15,34,-34,34v-19,0,-34,-15,-34,-34v0,-19,15,-35,34,-35v19,0,34,16,34,35xm503,-663v16,-23,55,-9,54,18v0,6,-2,13,-6,18r-229,310r0,292v0,18,-16,33,-34,33v-18,0,-32,-15,-32,-33r0,-292r-230,-310v-15,-19,0,-49,24,-48v9,0,18,4,24,12r214,292","w":577},"\u00c2":{"d":"246,-719v-14,9,-31,-2,-31,-18v0,-7,3,-13,9,-17v40,-23,73,-53,118,-72v45,18,78,49,118,72v18,9,8,38,-10,38v-43,-15,-71,-46,-108,-66xm89,-11v-10,30,-61,20,-59,-12v0,-4,0,-9,2,-13r282,-620v3,-7,14,-19,29,-19v15,0,25,13,28,19r282,620v16,36,-40,62,-56,26r-84,-185r-341,0xm487,-252r-144,-320r-145,320r289,0","w":685},"\u00ca":{"d":"232,-719v-14,9,-31,-3,-32,-18v0,-7,4,-13,10,-17v40,-23,73,-53,118,-72v45,18,78,49,118,72v22,13,0,49,-22,35r-96,-63xm567,-30v0,17,-13,30,-30,30r-399,0v-18,0,-33,-15,-33,-33r0,-601v0,-18,15,-32,33,-32r384,0v17,0,31,13,31,30v0,17,-14,30,-31,30r-352,0r0,229r199,0v17,0,30,13,30,30v0,17,-13,30,-30,30r-199,0r0,257r367,0v17,0,30,13,30,30","w":607},"\u00c1":{"d":"470,-847v15,-12,38,0,37,19v0,8,-3,15,-9,19r-129,92v-15,11,-36,-1,-37,-19v0,-8,4,-14,10,-19xm89,-11v-10,30,-61,20,-59,-12v0,-4,0,-9,2,-13r282,-620v3,-7,14,-19,29,-19v15,0,25,13,28,19r282,620v16,36,-40,62,-56,26r-84,-185r-341,0xm487,-252r-144,-320r-145,320r289,0","w":685},"\u00cb":{"d":"455,-755v0,19,-15,34,-34,34v-19,0,-34,-15,-34,-34v0,-19,15,-35,34,-35v19,0,34,16,34,35xm282,-755v0,19,-14,34,-33,34v-19,0,-35,-15,-35,-34v0,-19,16,-35,35,-35v19,0,33,16,33,35xm567,-30v0,17,-13,30,-30,30r-399,0v-18,0,-33,-15,-33,-33r0,-601v0,-18,15,-32,33,-32r384,0v17,0,31,13,31,30v0,17,-14,30,-31,30r-352,0r0,229r199,0v17,0,30,13,30,30v0,17,-13,30,-30,30r-199,0r0,257r367,0v17,0,30,13,30,30","w":607},"\u00c8":{"d":"193,-809v-18,-11,-8,-44,13,-43v5,0,10,2,14,5r129,92v18,12,6,44,-15,42v-5,0,-8,-1,-12,-4xm567,-30v0,17,-13,30,-30,30r-399,0v-18,0,-33,-15,-33,-33r0,-601v0,-18,15,-32,33,-32r384,0v17,0,31,13,31,30v0,17,-14,30,-31,30r-352,0r0,229r199,0v17,0,30,13,30,30v0,17,-13,30,-30,30r-199,0r0,257r367,0v17,0,30,13,30,30","w":607},"\u00cd":{"d":"263,-847v15,-12,37,1,37,19v0,8,-4,15,-10,19r-129,92v-15,11,-35,-2,-36,-19v0,-8,3,-14,9,-19xm170,-25v0,18,-14,33,-32,33v-18,0,-33,-15,-33,-33r0,-617v0,-18,15,-33,33,-33v18,0,32,15,32,33r0,617","w":291},"\u00ce":{"d":"50,-719v-14,9,-31,-3,-32,-18v0,-7,4,-13,10,-17v40,-23,73,-53,118,-72v45,18,78,49,118,72v22,13,0,49,-22,35r-96,-63xm170,-25v0,18,-14,33,-32,33v-18,0,-33,-15,-33,-33r0,-617v0,-18,15,-33,33,-33v18,0,32,15,32,33r0,617","w":291},"\u00cf":{"d":"266,-755v0,19,-15,34,-34,34v-19,0,-34,-15,-34,-34v0,-19,15,-35,34,-35v19,0,34,16,34,35xm93,-755v0,19,-14,34,-33,34v-19,0,-35,-15,-35,-34v0,-19,16,-35,35,-35v19,0,33,16,33,35xm170,-25v0,18,-14,33,-32,33v-18,0,-33,-15,-33,-33r0,-617v0,-18,15,-33,33,-33v18,0,32,15,32,33r0,617","w":291},"\u00cc":{"d":"-8,-809v-19,-11,-8,-44,14,-43v5,0,9,2,13,5r129,92v25,17,-4,55,-27,38xm170,-25v0,18,-14,33,-32,33v-18,0,-33,-15,-33,-33r0,-617v0,-18,15,-33,33,-33v18,0,32,15,32,33r0,617","w":291},"\u00d3":{"d":"497,-847v15,-12,38,0,37,19v0,8,-3,15,-9,19r-129,92v-15,11,-36,-1,-37,-19v0,-8,4,-14,10,-19xm716,-333v0,183,-139,346,-332,346v-193,0,-334,-163,-334,-346v0,-183,141,-345,334,-345v193,0,332,162,332,345xm651,-333v0,-150,-106,-286,-267,-286v-161,0,-269,136,-269,286v0,150,108,287,269,287v161,0,267,-137,267,-287","w":766},"\u00d4":{"d":"287,-719v-23,14,-44,-22,-23,-35v39,-25,73,-53,118,-72v45,18,77,50,118,72v18,9,9,38,-9,38v-43,-15,-71,-46,-108,-66xm716,-333v0,183,-139,346,-332,346v-193,0,-334,-163,-334,-346v0,-183,141,-345,334,-345v193,0,332,162,332,345xm651,-333v0,-150,-106,-286,-267,-286v-161,0,-269,136,-269,286v0,150,108,287,269,287v161,0,267,-137,267,-287","w":766},"\uf8ff":{"d":"786,-333r-333,0r0,333r-333,0r0,-666r666,0r0,333","w":876},"\u00d2":{"d":"236,-809v-19,-11,-8,-44,14,-43v5,0,9,2,13,5r129,92v24,17,-3,55,-27,38xm716,-333v0,183,-139,346,-332,346v-193,0,-334,-163,-334,-346v0,-183,141,-345,334,-345v193,0,332,162,332,345xm651,-333v0,-150,-106,-286,-267,-286v-161,0,-269,136,-269,286v0,150,108,287,269,287v161,0,267,-137,267,-287","w":766},"\u00da":{"d":"468,-847v15,-12,37,1,37,19v0,8,-4,15,-10,19r-129,92v-15,11,-35,-2,-36,-19v0,-8,3,-14,9,-19xm609,-264v0,169,-97,277,-259,277v-162,0,-260,-108,-260,-277r0,-378v0,-18,15,-33,33,-33v18,0,32,15,32,33r0,390v0,123,69,206,195,206v126,0,193,-83,193,-206r0,-390v0,-18,16,-33,34,-33v18,0,32,15,32,33r0,378","w":699},"\u00db":{"d":"254,-719v-14,9,-32,-2,-32,-18v0,-7,4,-13,10,-17v40,-23,73,-53,117,-72v46,17,79,48,119,72v22,13,0,49,-23,35r-96,-63xm609,-264v0,169,-97,277,-259,277v-162,0,-260,-108,-260,-277r0,-378v0,-18,15,-33,33,-33v18,0,32,15,32,33r0,390v0,123,69,206,195,206v126,0,193,-83,193,-206r0,-390v0,-18,16,-33,34,-33v18,0,32,15,32,33r0,378","w":699},"\u00d9":{"d":"208,-809v-18,-12,-7,-45,14,-43v5,0,10,2,14,5r128,92v19,12,8,43,-14,42v-5,0,-9,-1,-13,-4xm609,-264v0,169,-97,277,-259,277v-162,0,-260,-108,-260,-277r0,-378v0,-18,15,-33,33,-33v18,0,32,15,32,33r0,390v0,123,69,206,195,206v126,0,193,-83,193,-206r0,-390v0,-18,16,-33,34,-33v18,0,32,15,32,33r0,378","w":699}}});